solver_type L2R_L2LOSS_SVC_DUAL
nr_class 6
label 1 2 3 4 5 6
nr_feature 5824
bias -1
w
-0.01517383933957449 0.02956637767570857 0.0315510834804105 -0.04296271363728328 -0.009599035044497892 -0.02948279721122639 
-0.02166130662491389 0.004597000593723733 0.02612686859152617 -0.0250055191781449 -0.01483064075427341 0.009093203246611999 
-0.04402688921415395 0.04680345192434941 0.04231370570905435 -0.005710766320353201 -0.02827368054108731 -0.02213990234429475 
-0.03717813418689231 -0.0101763217725992 0.04198093240610441 -0.02595282616345054 -0.02929406155551047 -0.001858630704673338 
-0.01009448163801309 -0.02091192183764556 0.01875708530705644 -0.01578821899564666 -0.001466090369258567 0.01388412876340718 
-0.0159796103321143 0.00488220641257972 0.02781481365676566 0.01194422356024292 -0.0303516703501868 0.0007340737127318305 
-0.05397424161136862 -0.01406931129248956 0.03188152483347741 -0.007979126707773504 0.002713054156210535 0.0510582133098083 
-0.0007934358660709904 -0.003166801852845667 0.00362933539029779 -0.001966878576420299 0.005563084782219802 0.00459072983952229 
-0.005963764929515607 -0.003347843579336279 0.003459702421493172 0.0004432259156685136 -0.001261515673734752 0.01221911775989455 
-0.01004441638420798 -0.005876612785843604 0.01357780753270651 -0.006693041637943302 -0.005224481740330087 -0.0006556111281986398 
-0.007951913773270241 -0.003296575915356324 0.002752241128310218 0.003303330300928989 0.002140751056628247 0.01182166104886213 
-0.0348491659233828 -0.01632286056727289 0.02169782932392846 -0.03282972559509049 0.01023002523980098 0.0001455226050124106 
0.01779096563711559 -0.02684571094275941 0.01292872141797343 -0.05555373363991885 0.01734927384004315 0.01419651903489991 
-0.009383466612845715 0.003180482449634326 0.005105666103065768 0.001738812509418701 0.003952775903549543 0.0006170525716217691 
-0.01432147864718524 -0.005405310841832114 0.01152628166248905 -0.001530615675781529 -0.0008927223569137236 0.0005615682285938795 
-0.01836937152370975 -0.01229694299658477 0.01710169548708875 0.02812072806865374 -0.01426188697031319 0.009734810791663544 
-0.009306639741292023 0.003005940150703228 0.004171744272769177 0.006450274382867108 -0.005568630637891692 0.002486400083501413 
-0.003758030259578604 0.001991334079432381 0.004190750919584429 0.00409758227955277 -0.005334283186516843 -0.004503800538427248 
-0.03490156092403678 -0.02612727236184414 0.01951585407869243 0.02189144923323436 0.04321312983014276 0.001100889826249252 
-0.01247315961985898 -0.01314270855894187 0.02038434587336198 -0.01821811360331402 -0.007983532531714107 -0.009663361259818603 
-0.009072137214282705 0.003117984046372287 0.004922090726202161 -0.01077681700615836 -0.004467155446463083 0.01020436807298268 
-0.009187114044696999 0.002681998632387691 0.01089554162277112 -0.01728020464445386 0.001159258866246975 -0.001064690779408214 
-0.005676867300842049 0.004811889909862986 0.02007523743212276 -0.03712143737752294 -0.005771822942679398 -0.006525414419562499 
-0.002228662046781648 0.001646319036564807 0.02248643710598934 -0.03554428663858771 0.002611008060150681 -0.01021122546694451 
0.02264387745790917 -0.01943326839351139 0.03718551791056583 -0.02852392354923589 -0.0146196191144774 -0.02854525408142178 
0.01762137297474586 -0.01800665767224128 0.009941600502889997 0.005801976704836255 -0.008243485104831774 -0.008763264232796462 
-0.03937726238739789 0.01735260358474113 0.024624363745268 0.01064510604973622 -0.02542259771799783 0.01343632009926353 
-0.04997016763254657 0.03310871918128563 0.0123411329174673 -0.02300060325676685 -0.01187228778869017 0.02028314808240009 
-0.01720633015740811 -0.003811776982924377 0.005844656610713539 -0.004174270905789016 -0.0003694122175321311 0.02820489660391385 
-0.001641584820913108 -0.01558494327337723 0.01855503273493811 0.009216536806772486 -0.02539489269326649 0.005570911346714215 
-0.03049229380888739 -0.0163136454165166 0.02333126339507228 -0.0009021728539496269 0.01500847737136117 0.03400224571286976 
-0.02248669352794243 -0.00630795992377788 -0.001063724546965543 -0.007129492413555057 0.0250331871505194 0.02689388997692612 
-0.01219736662778365 -0.005619709018292874 0.01002988223734442 0.001043919153541971 0.006565100028397395 0.001733801138734209 
-0.0166509201674482 -0.009921647465963558 0.02288604266993424 -0.01936343836576997 0.009972399186189054 -0.006396128505011461 
-0.01967979014626423 -0.01590655995388071 0.02443907374855495 -0.01181819284141568 -0.009147165803238698 0.009378951671469281 
-0.0307542780268744 -0.03597762742821434 0.04984222924159017 -0.04677945254029153 -0.001558901199861159 -0.03356711939866541 
-0.04976299393778777 0.03502876386760375 0.03097234369663335 -0.02113620771176785 -0.00435449457447513 0.001968963247870548 
-0.01660129275044777 0.01191309311468196 0.009995589874163368 -0.00568299678010212 0.009171435230531098 0.0114733466347652 
-0.02523642630754059 0.0183432385820332 0.001234689221245893 -0.01558558405428972 0.00970284920829138 0.0185981775307168 
-0.03405649244270492 -0.03761567754445003 0.01151999397151332 0.02094263175447469 -0.005117135370770664 0.04914909874949034 
-0.04127533960191363 0.02955044581451432 0.006874374916216378 0.0008052777814879192 0.001675368732972483 -0.001114761765351002 
-0.03115269347447433 0.02802299377929723 0.0001406380007191085 -0.005313092614858642 0.008120356251248594 -0.005340064699861526 
-0.05073419487831329 -0.04071938168424223 0.008732325463580897 0.03808318394436944 0.01502061913888323 0.05966602005205691 
0.002642689658497831 0.01145224833256284 0.009549286553615016 -0.008053241132668757 -0.006340363396469127 0.003136099399006042 
0.007631361382381721 -0.005467050477811426 0.003047062454033047 -0.006027357738780921 -0.006466119331664317 0.002121302434898572 
-0.001311874153585687 -0.001414629685964965 0.01334921779913826 0.0008193654796771272 -0.01076133805396028 0.007301393795143904 
0.005566529246211553 -0.02256722496745948 0.03146442303757922 -0.02621019552056552 -0.00991451268840176 -0.01696762673300638 
0.02727363685095989 -0.0148536495104737 0.04245526815433386 -0.03346621092115114 -0.02271013401259543 -0.01653405409374498 
0.02765627591470815 -0.002066231873934001 0.004584723680990551 -0.004334975814640764 -0.01489298500398096 -0.02391180922253507 
-0.004623818217562765 0.009445647025349812 -0.01278227273047363 0.00711542162824579 -0.00418028162822745 0.008112417151827532 
-0.05451485547905818 0.0699376086887115 -0.04558981224810915 0.01254914628192857 -0.01949684024423255 -0.005193138928487998 
-0.02808500768886418 0.07914864133537199 -0.01085506141637913 -0.01930091579442001 0.01292927418280798 0.0003125461945825352 
-0.0009452930374386285 0.01671481086702119 0.006920829155971968 -0.01301925366849394 0.02243375893197118 -0.007237590065051151 
0.00485622679562036 0.01239956269013222 -0.008533493666586824 0.00912765587541987 -0.0007734697732314561 -0.002189307615587049 
-0.06741916866783215 0.01074020802470772 0.01045884425093373 -0.007833165446663903 0.0148713887604415 0.03523327268895748 
-0.0155594754320363 0.007104768692498929 0.003448076712873243 -0.009330175817314126 0.01799475994364844 0.006981902271784835 
-0.01620377873674473 0.005609526205725463 -0.00190876338218375 -0.005444224536852224 0.02090237563466941 0.01257531071150489 
-0.01559164340410538 0.006863069266458852 0.002662647341182608 -0.007054199648496527 0.004431009545669095 0.008447463769283584 
-0.01338871845552648 0.008671075011441924 0.004132929370069972 -0.01122489655926201 0.01601370075011545 0.009192794372557007 
-0.005642473341324043 0.002827062690426521 0.00756309547616348 -0.00113713612341086 -0.0001091488581733885 0.0293198519004908 
-0.03680257405745249 -0.04659841398424846 0.0629347223514025 -0.01058819208727475 0.003905251095524831 -0.006825283055565938 
-0.01027741314486767 0.004328795805708299 -0.007695405526182583 0.02261388268245325 0.001702934350793052 0.01838633152667067 
-0.01869516178377385 0.03934004753405741 -0.01703813901474643 0.01445318301836384 -0.003491658312354612 0.01257818860960299 
0.03714027329931439 -0.01533616187238678 -0.02054437730753481 0.04059803944606649 0.01076622839569606 -0.03674511753460413 
-0.003487241028329212 0.009407186874243186 -0.008611347076430777 -0.004034712106022721 0.01724362452213727 -0.00913169445218753 
-0.03206700855187547 0.04781658999410378 -0.001463342603517904 -0.02094900034440025 -0.02816320787554753 -0.01279633700884272 
-0.01692639514995496 0.03536630567387899 -0.004619464474466817 -0.02275665641690368 0.04644205875851583 0.03798777369458117 
0.005459755807230715 0.0008109275046850043 0.002902423097528382 0.001996496169917742 0.003772069873822917 -0.009661310000304648 
0.002009991634146069 0.007688452145829049 -0.0001553483949581264 0.00137286727079983 0.0005857351423845742 -0.007585806705351229 
0.002186341205234964 0.001665779191558528 0.004688737956060616 -0.001301356652778774 -0.00534854244047013 0.0007393946375795226 
0.004996314549160605 0.001039357631594391 0.008044598427034781 -0.001979876508704074 0.0009350659854352532 -0.007844528045214842 
-0.005300829907294641 -0.005026396009234329 0.04222384903742755 -0.02352171085622049 -0.01969497627520681 -0.003869733669977763 
0.009513713656703575 0.00266855740198663 -0.007605406072142892 0.0178601353759619 -0.009144006974659892 -0.0002544466291102705 
0.02450482299075993 -0.0103134490746857 -0.01773163181119397 0.03168523024091892 -0.008972811062604422 -0.001435516925143463 
-0.06321429293853542 0.06178275904220822 -0.05429933471422324 0.05057857456430021 -0.05306823987633887 -0.006166900096887717 
-0.01318188650162117 0.05361204175324239 -0.01401885030565189 0.02254847514693566 -0.006190091480716245 -0.03381980160410962 
0.009823234447817039 0.01678306655099367 -0.002164392975062139 0.001477038890452304 -0.01912795707139632 -0.01255059413338183 
0.00965595653411206 0.01898326361280534 -0.03140963232556642 -0.01461516098833286 0.03363638581044637 -0.02992518379175176 
-0.02641942564001309 0.02180674662868949 -0.006397266181479336 -0.01072494606463911 -0.01007290945700443 0.02764052060456763 
-0.006872696446964597 -0.002018422551306783 0.003511148302516739 -0.003728660043430837 0.004034943150559712 0.01792606002894027 
-0.02314097827985188 0.004318309197949314 -0.01114756169096982 0.003848245493237088 0.02010574818663812 0.01690454066379734 
-0.0117570110643467 -0.004618337018137218 -0.006533562699050923 0.009057944940532775 0.002681906115360883 0.01197656578752244 
-0.01684605836220901 -0.01209990176962605 -0.006307632319755941 0.02241855542796665 0.008322632083369932 0.008014818530606515 
-0.01520337981523141 0.001692384786587205 0.003610025473002345 0.01242643162334717 -0.008094468009178752 0.02267925444252559 
-0.03349303549002212 -9.40203950142305e-05 0.007339064938695004 0.009263279180757936 0.04533006784740035 0.009538694859498594 
-0.01662195741584515 0.006920303155882324 -0.005172207752434831 0.01308269724150569 0.008233874017206985 0.01418641416449153 
0.006480168351353127 0.02433167013644337 -0.01071509729946089 0.007964413820773026 -0.006897394705715806 0.01826907531648355 
-0.004162658967909143 0.00989841655611305 -0.03039741311205169 0.02233410669687462 0.01412946701471558 -0.01028482911982064 
3.237605499203295e-06 0.01310907863062562 -0.02064616384293692 0.01217648638308876 -0.01874977811722799 -0.01119270076225955 
-0.026456927807256 0.07145245037761164 -0.02989697597828792 -0.002981399004615542 -0.01982479421051423 -0.02753604317161159 
-0.06130387580512795 0.05863689661298985 -0.02055722935812715 -0.02895047453911666 0.01646134107993517 0.02560412826778113 
0.02107713473582514 0.02850023551895891 0.002997369946551301 -0.01060359306694284 -0.02723447608286394 0.01327498733279264 
0.0004929451938534591 -0.002600467668253571 0.003796427499501246 0.01238170738376894 -0.008460072418229209 0.004454490832290074 
0.003864161042226691 0.0008222923776410326 0.008054054594393737 0.005390066309628795 -0.006278774231942299 -0.001438272286741759 
-0.003611844453359167 0.003880566770052426 0.01331842801622987 -0.005809937542460512 -0.005767062223043609 0.00637132630440944 
0.0452530032721183 -0.0004467952419568745 -0.01456947681164077 0.02661085459186735 -0.01679605154539074 -0.01170188126818479 
-0.03246399215606321 -0.04772764880135755 0.01287903667713739 0.02323140707170573 0.01019265862226466 0.04101523128850868 
-0.0243765380268242 -0.008209965242862504 -0.005661314898377195 0.004749105919220717 -0.000803265858646613 0.0345166188411686 
0.02859377893347245 0.02042419796474705 -0.02143831340784719 -9.45797757133533e-05 -0.003734754682935125 0.02902540806803915 
0.000585653044733555 0.01435540842813527 -0.01148168912307831 -0.01689312760743619 -0.005374531553939846 0.01294948627600627 
0.03929262776775056 0.01263102453514716 -0.01019774802921573 -0.02703907501191325 -0.03009071871703832 0.0316925312876141 
-0.02073803677050784 0.04415195811222796 -0.02630276600203246 -0.02969357469466421 0.009023940990862926 -0.03062868186031546 
-0.03148808396084085 0.04373825931652248 -0.01320340529523609 -0.03043441617840741 0.007105853944397276 -0.0156307191898927 
-0.03945562384856384 0.0119638313334758 -0.009896977373476196 -0.008664773166126072 -0.004656746029222044 0.01783998543335602 
-0.01728261578098411 0.02717080610209653 -0.001541546998494818 -0.00279377433158033 0.0007327224632345201 -0.01280966321723771 
-0.0158353788785631 0.0155066103434908 -5.294691103257311e-05 -0.00535986544049195 -0.001269796148028369 0.001355469181517148 
-0.02150761521935205 0.006845077449524853 -0.002200125981242266 0.006353355087116412 -0.009153067565293454 0.008917429568429024 
0.001127039610921028 -0.002180029120221566 -0.02125204238214032 0.00836927188336224 0.004848510867622444 -0.02179422021251894 
-0.02335290617116137 0.01854635052548563 -0.03699182684509859 0.04830923156024654 0.01005528230343386 -0.008735843807563856 
0.003304995451264967 0.009158595954310412 0.0134961103510979 0.0001286704741163389 -0.002774389619143383 0.003194609707526374 
0.01203267230923187 0.001870129606645849 -0.008505295612464207 -0.004084840513506932 -0.003856702485996503 0.006704908464764481 
0.05217822513535189 -0.000748299124101269 -0.04263003755392999 0.01066820102447751 -0.01158084079843152 0.01835570540492289 
0.01292446166530984 0.009259385603620354 -0.01071694017623593 -0.01330228915598819 0.003144410366266805 -0.01436523024136748 
-0.07029740055003042 0.07005895863526324 -0.03725037777038659 -0.00178652052385993 -0.02695996147554313 0.01933448797741526 
-0.04562313978057006 0.1011921069767019 -0.04925634293375031 -0.04272269205714974 0.03109650890698522 -0.02019631421046872 
0.002807179040305492 -0.003734478031095458 -0.009032369391666715 0.01555670404870393 -0.006299010184025073 0.01946998349117471 
-0.008149325651516425 -0.001789364739045504 0.006447796655568864 -0.002901024532227368 -0.0004073739358561207 0.01220134931999361 
-0.009980082059071005 0.01057725195305692 0.01301458465174581 -0.01343687267493469 -0.001726787487357241 0.0195517509877548 
-0.02741652721984875 0.002381848142711154 0.01044349299110504 0.008161388472641374 0.001920124084060503 0.009558118362058027 
-0.009709951465487945 -0.07131916070962202 0.01750084916140383 0.01461025655743167 0.0288148820841046 0.000857981540543161 
-0.01750981767272474 0.02340021976623955 -0.01516743256214366 -0.006214842248858323 0.006601110940801465 0.004635758396787457 
-0.03265731294754374 0.002913561668182069 -0.006868312145472751 0.008058965235875777 0.01814986317609932 0.02433822835919205 
-0.05517248290040313 0.02625029326730284 0.03020201555616683 0.0108685930108951 -0.00562245414484653 0.004939876924188662 
0.01469672073886588 -0.0327441931797712 0.00835122004914415 -0.009193407896692828 -0.01054971880465052 0.027701638583353 
0.007321944231129049 -0.003249653790940619 -0.0010750479658245 -0.01252067708284626 0.006288514750079355 0.01732017077249843 
0.09694681755262921 0.04104125620960052 0.002174467335117402 -0.05014449875455539 -0.03008064430061998 -0.0473926454332643 
0.0462195136144498 0.01217761217358795 -0.01180363759323852 -0.0232368616504266 -0.005562547296567684 -0.02241496662375026 
0.01845198082889143 -0.006709740229604845 0.002710709325191485 -0.007431120106222353 -0.004337288420307829 -0.0009574469667577266 
-0.009639680275636043 0.0141830384848372 0.002272195926250299 -0.001025672299398958 -0.003192963924858202 -0.002766385400091583 
-0.005117683847592607 0.02296858221581915 -0.001809501594126169 -0.005602111035941917 -0.009164616742521831 -0.01412271149190613 
-0.001287758453490481 0.01212903332269777 0.003342203802970172 -0.008855204539313473 -0.0049729756453371 -0.008473357591463065 
0.006421963685786893 0.007946559616029816 -0.007333759368872274 -0.01771829306865039 -0.01378716497334788 0.001782319625006883 
-0.05445384162420741 0.07832910949998552 -0.002780481756352161 -0.03854918752599932 -0.02141471126232385 0.01680892403429642 
0.01455726148593281 0.003503491182407298 0.006879753169237376 0.011273939565486 -0.003581811659453611 -0.003700436538642767 
-0.0007113024580304968 0.006652655028890374 -0.004761240477426125 0.009879222643543366 -0.003969976993424486 0.001167656624191462 
0.07067278302405855 0.001498037797532177 -0.03422981679635426 0.00982853917351246 -0.02023164449538194 -0.01221463965253923 
0.001640316255130967 0.01376381981980537 -0.01103119186799392 -0.002741442545382037 -0.0114766718496248 0.0009513825871227301 
0.0180215010457147 -0.003179251389978048 -0.002818333650332557 -0.01935491691286649 -0.01844549996827314 0.03413346304485087 
-0.04954112975498128 0.09364611276070051 -0.03116706117736084 0.001395217364197332 -0.001957758751550778 -0.01724671027521301 
0.002111652953599093 0.0153188162929602 -0.002600022575070339 -0.002364528233859073 -0.006721480598874197 -0.008372709832847625 
-0.01228329142704954 0.005795347458785898 0.00261312366067299 -0.003925941834577633 -0.005646964383384936 0.01304167558030238 
0.00297840272736558 0.009285228606559979 0.004052834142669902 -0.007066245963388272 0.006765347586676226 -0.01199928505985558 
0.01671656875973404 0.002633430497412948 0.005925112946622014 -0.002512960411736388 0.002446830844178494 -0.003799133806385033 
0.02792347637833584 0.001132425948492321 -0.005165164787306669 -0.01584511665099951 0.00357525446209834 -0.008752927808545254 
0.02879624491157856 -0.01611740586742804 0.009025263894519832 -0.02010377969231758 0.03243037007275378 1.825789885565094e-05 
-0.01319945572139602 0.003494675650009133 0.01071958986038732 -0.002187049230344909 -0.004988427471232341 0.005535613530762167 
-0.05253201112163124 -0.005919927042266386 -0.004745092266288539 0.02698452077351075 -0.003728979625748449 -0.006627110858531787 
-0.0454801423885266 -0.02010165507162718 0.01859383171291152 0.009370882215170091 -0.00933095182751289 0.04975118286557302 
-0.00237642550920571 -0.0100716593175898 0.00752675408117138 -0.01441028076985365 0.01093530131884802 0.01944139511301208 
0.0005851502915462087 0.009930225513649867 -0.01438233402208191 -0.003364733054670932 -0.02307745325324827 0.01756248132914093 
0.01136608681617328 -0.02892006312254007 0.01092091745008441 -0.009033491741741898 -0.008561139557088359 -0.003564397722045796 
0.005967191763311554 -0.003019852148170608 -0.001118827681658896 0.0005510036909083093 -0.008302504403487313 -0.01198050949178478 
-0.004508650898256699 -4.847418620150864e-05 -0.001890984443175026 -0.001500326251840183 -0.006309424370014314 0.01433726829720135 
0.003295902079372105 0.002236987339764446 -0.005222796863001557 0.005547307025274933 -0.005753032422803582 0.002659112942824302 
-0.0108027931153462 -0.009899036629797081 4.348724938757474e-05 0.00688495798617448 -0.005532392209293779 0.01573238043334021 
-0.02958445006337185 -0.02614889026038967 0.002659123064482242 -0.02377185680488621 -0.0111097798144281 0.03507761312572535 
-0.03014292164483591 0.02368141678679668 0.0322722875122286 -0.04627798542841472 -0.02479737732597389 0.007117853924250576 
-0.02608688978332406 -0.01023555150934943 -0.007514961150912966 0.01787252013661814 -0.005488832486445312 0.03378040764595001 
-0.03863124904169524 -0.009154271839361985 0.01672709278716472 0.005385948921718992 -0.01536299775203516 0.02352779689276411 
-0.007641500525698794 -0.0147639158634302 0.007366179366449917 0.02446397910438106 -0.03541069359821109 -0.009917251475863595 
0.02311914210007208 -0.01308389276170445 -0.0003166578647095982 0.0154577829802381 -0.01650688407961821 -0.02212629918022536 
0.002271564607486462 -0.01152709680961292 -0.0007199675283800411 -0.008303567334241422 -0.0265190457708535 0.04912895163624507 
-0.01243562721012597 0.0324602233934316 2.676446664404798e-05 -0.02772283675061669 0.004822371929167841 -0.01527690179500409 
-0.005388307256537923 0.01166531363159905 -0.002534401494356771 0.0004387570491566593 -0.009415352423872262 0.004254873047565851 
0.004921105111456537 0.00167452682345455 0.001916762894320997 -0.005227609215398993 -0.004833886606468075 0.002148356025541209 
0.003147008166406057 0.01417474062155656 0.01055975309380931 -0.00974317577509007 -0.003734760874600808 0.004727906237139085 
0.01128068885654577 0.000269995225088433 0.0139978002948611 -0.01037170306029122 -0.002944169395223628 -0.004994636295157438 
0.03298717631044589 -0.02045759496604826 0.007219202457836861 -0.0204051626619081 0.02814040793478087 -0.01955514358676672 
-0.02922273293529777 -0.0190000540432445 -0.01009386928349914 -0.02088355683142369 0.02594642671993027 0.05467766738752098 
-0.008127401785489079 0.02073213371385075 0.0009961026996291914 -0.01675696369393744 0.0005484178144763506 0.0257438023096576 
-0.0216223579923389 -0.009421544485823472 0.02601501188790832 -0.02004348601126645 -0.03889788305939079 -0.04256909541992665 
-0.006413117425990101 -0.03770358919963618 -0.007960705904305749 0.02036006865752729 -0.02010963429569469 -0.01359214626503322 
0.03989548672299562 -0.03165917713317618 0.01341064609219593 -0.01599586076578588 -0.009516336215188999 -0.01715145187327069 
-0.01124991087420598 0.01969443864870455 -0.0218105697022532 -0.01128239434677057 0.01353562417720918 0.008789322864884239 
0.01208537129182838 -0.04433172286596651 0.005028664705801543 0.007737865392143372 -0.0005975991398593426 0.00830900435323101 
0.00378083142701137 -0.02832974970688244 0.003132909999910497 -0.004508122498383596 0.001148755337693975 0.01504761442978155 
-0.0003859219383201555 0.003863282906707021 -0.00139693580481576 -0.001827262322083635 -0.002453192738675279 0.005830541785557294 
-1.802146892067726e-05 -0.0006269362200820494 -0.002823132387115321 0.003215936744281346 -0.002949001692050637 0.003482369799646677 
0.03142513780204079 -0.01600328306321353 -0.001238788624318243 -0.02013515021398932 0.003011309589249121 -0.006787894302829413 
0.03158733270061673 -0.0106833229035857 -0.01844441548131082 -0.02543036349812359 0.001736116011935482 0.005676023140090486 
-0.000407620907221547 0.03104626563662455 0.04178005324117359 0.003246068817386281 -0.002160885441517711 -0.1240499121735118 
-0.01451091776646263 -0.00925332448520075 -0.01781237728647693 -0.008311032604694315 0.01389858994679267 0.006552550721496976 
-0.01187882668451228 -0.02131746318554082 0.004277729584231564 -0.0171313939730097 0.01659855821339385 0.001874938868353616 
-0.03724075256472981 -0.03746547999973351 0.03039709691476006 0.003391956187594249 0.0137523081320456 -0.0108207451395273 
-0.006215544193477845 -0.009561585062233405 0.01466439143118392 0.001778667140414985 -0.01506881965153176 0.01055823629257639 
-0.02664776941425898 -0.02398642571408562 -0.001282306174548138 0.008240705858295264 -0.004430270655412968 0.052214674974319 
-0.035562754012126 -0.06737325205906919 0.002126239400965665 0.02683498397937654 0.02872699145181739 0.01442282883571336 
-0.004006065389597011 -0.005942762349706822 0.005139167616003794 -0.001450685407869814 -0.00070544694664 0.003537105691531333 
0.0008994512122112085 0.0002303869607633744 0.005151813224422973 -0.004529872250841121 -0.00744802488023432 -0.004846951655377611 
-0.005650616191378539 -0.006219199255029976 0.0008599642527155852 0.0008380852312767494 -0.01265075691828207 0.02086889264883687 
-0.0006931162585721042 0.003434023704544161 0.000394258225768101 -0.002499818214643929 -0.00395238840988528 0.009455355014688797 
-0.002212155095381918 -0.005205378558198128 -0.01844897660502647 -0.01145253159929264 0.004687934848086345 0.02950757203616926 
0.008779221647029069 -0.02018763896481308 0.01891134805587772 -0.01530955588026664 0.001517645515119305 -0.01482735449199095 
-0.03061827514122326 0.004720948527606184 0.003393225071321479 0.009627354183130031 0.006106668473521332 0.01444231055434987 
-0.06305599084485941 0.06559292585716557 -0.002958144889732672 0.03805798459946239 -0.03555532515993545 0.02031498070991457 
-0.05738014677340804 0.03304490554470397 0.03941613765911881 -0.01593051550279774 -0.02186539419685183 0.02803209707203676 
-0.02112903862218647 -0.003622080846182873 0.008932776988952737 -0.004997255199932676 -0.01444039872934179 0.03703441445291073 
0.02137664310992612 -0.04691840010473372 0.03162344733840157 -0.01162188401839701 0.0132106894012695 0.008349058881279951 
-0.03997330198980617 -0.03191351724470234 0.04014165380680974 -0.0181966967746954 -0.0004113388448595777 0.04523105885049291 
-0.01937573873610746 -0.002504119174783698 0.007977509765077493 -0.007749864379902424 -0.002462496257231349 0.02160178975088256 
-0.004958332374005146 0.0007004607427217055 0.01051362020945756 -0.003382915775287812 -0.005331124954347339 0.002583513520769135 
-0.01112333907424414 0.003076773119373169 0.001874268442033823 0.008164925209130144 -0.01079468794642873 0.001027527558582338 
-0.02588404662598654 -0.004841378215887478 0.0147134659515504 -0.01407225973952695 0.001258549060140775 0.005120692622265509 
-0.02610291886859781 -0.02472355886461407 0.01890874695121538 -0.05191885666982164 0.01684210416614597 0.0323001956663785 
-0.0249102689674684 0.0353863494372719 0.02277570341081159 0.004632602617749062 -0.01163382912022406 -0.02776475392926182 
-0.03517978250019584 0.00401785466836878 0.0182884866250386 0.01104325591282558 -0.004671880986590291 -0.002734128695365977 
-0.06304012960302212 0.02197726008855954 0.02370308748461875 -0.0004429568584073709 -0.02432408114698571 0.007132723599963193 
-0.03350499371030174 0.005858400413242453 0.01534601932642385 0.05138986511442525 -0.0380951854666769 -0.00738605233302486 
-0.0136317403854962 -0.002589385501242374 0.01312032530295241 0.008632313794624454 -0.01294896396971752 0.009349595067726015 
0.007859121416677304 0.002693461120432117 0.006927018851245507 -0.001842132528697643 -0.01707937865926821 0.02368489434391656 
-0.02029498976586134 -0.01968443526968135 0.03281605881313055 -0.05950651226917414 -0.008491836065431661 -0.01111723645351967 
-0.01870127451551833 -0.007255948748580449 0.01455395828033732 -0.01580020538742502 -0.007986684399719859 0.00579167031608481 
-0.006079080950616324 0.0002829077745167313 0.004201245893084885 0.001857361471632743 -0.001857342217873902 0.004328454704512092 
0.001387843327280436 -0.01441448883379075 0.009505424088411702 0.004419560043910587 -0.007825049349317062 0.003946298201318016 
0.006168409286371707 -0.0003377804246552335 0.01324229525770793 -0.008022092098331371 -0.001686714926209892 -0.003502667021929179 
0.001850135877777866 -0.0157465932460342 0.03953886993784137 -0.01787449845058755 -0.009003160761379865 -0.0100150473415544 
-0.001683434852968547 -0.01835118172616897 0.03685491213765468 -0.0207733695240609 -0.02529953469048408 0.003000465066190425 
-0.03906067509778768 -0.05300470108450484 0.0259198791904335 0.001297010476384242 -0.01790310391675401 0.05526785396127895 
-0.07422264936795657 -0.03360976217651527 -0.02179560266135488 0.0287782865779643 -0.0652227742505696 0.07023390335904559 
-0.08151811161088908 0.03769356874962952 -0.006129056110721148 0.007131999797063687 -0.02881145200005401 0.04419941837455573 
-0.02036355243579305 0.02349868801924079 -0.02013183614928453 0.02074838459662586 -0.01910033996077394 0.02908130255966309 
0.0908595032200232 -0.03508404132059127 -0.01616763574434233 -0.01522014911361731 0.005240931555652047 -0.00636366910766455 
-0.0149318154224157 -0.02212848459116504 0.00735469944481039 -0.01084092694691243 0.02662084190052675 0.03640838899345288 
-0.03134576735929272 -0.009290410053501591 0.01981315784540347 -0.002514627672341445 0.005429528861831602 0.006617092451576799 
-0.01742541247904053 -0.002831809780725017 0.01500004242900064 -0.006461822785881157 0.01067819995267831 -0.005856980125785003 
-0.03979398768129421 0.004951556146022746 0.01271622231013452 -0.005739995838694086 -0.0008750020536310302 0.01251196549607174 
-0.05621354569062448 -0.008985734366213824 0.03315487507966831 -0.0130994363652612 -0.00222893612603515 0.009800703456099973 
-0.08464591056634362 -0.04200748173718651 0.06423017904173725 -0.0521333701928113 -0.01692932727517959 0.01274512487005989 
-0.08816570844954144 -0.002614954403066385 0.01529472871984685 0.02734162772457358 -0.01525564610151724 0.04831781104493921 
-0.04493374214062944 -0.002250787774102379 0.02499813263311928 0.01272272671535639 -0.009353328318578295 0.02076226187646827 
-0.09721177113511839 0.01801591668312737 0.006637917730517379 0.037787088928711 -0.01928052622288868 0.03518750262314477 
-0.02321008894530893 0.02074254293620491 0.0006008084210962558 0.03272386812132234 0.01343482686515144 -0.02836611982354072 
0.004233194798627229 -0.003961026775197662 0.01083268225153469 -0.0001406037628977681 -0.003728751962641114 -0.01770379956887462 
-0.05418114673588689 0.04251654220878093 0.006067574285669624 0.003630032556882803 -0.03370549874546154 -0.0008404407060069845 
-0.005796349974255747 0.02089996397547031 0.0164257434640479 -0.0345144620344244 0.008411275941908894 -0.01679734348132346 
-0.008986312451316552 -0.01457515024181579 0.02118884266751827 -0.0196079892637134 -0.01423159588203165 0.003213713104330912 
-0.02055317801377128 -0.01805560529993725 0.04775149672498198 -0.01070182430067187 -0.02334741574416893 -0.01725716169555074 
-0.005564261861249874 -0.01680293586782358 0.02633590940769458 -0.002602046342114184 -0.01148130239770922 0.007413177175351155 
-0.02617556522169298 -0.0333756153952608 0.04859538302933406 -0.03718370985153726 -0.01762941295427109 -0.01349396395668434 
-0.009251344707301148 -0.02149099710456218 0.04397214376584118 -0.03649965973396253 -0.03106750974637117 0.0222205413449679 
-0.07933249638422485 0.007785249561191717 0.02222768271978863 -0.005046648038571164 -0.01865513394799652 0.01938299017196449 
-0.01145842965294688 -0.02024690909812384 -0.01287415456426606 0.03294079132184992 -0.007518107299500338 0.01048803346418902 
0.05885834217892687 0.003667746030593038 -0.06206418936648704 0.05092360323005631 -0.03465396468878522 -0.03820231422309767 
-0.02612379800679389 0.08638207491210077 -0.02831904434974476 -0.03596907708614621 -0.01594728890634414 -0.02953824513982949 
-0.01944929852062764 0.02753197981296533 -0.02375142703342396 0.005748395315585962 -0.002721672273772649 -0.01014166479193894 
0.01889235129654997 0.04244532092252429 -0.03939214547357049 -0.01683643669184509 -0.002458524092647549 0.008430387290353772 
0.01278644475392808 0.009787516903238706 -0.01720940860804899 -0.0005456097872286277 0.004099846809902008 -0.01729462631496438 
-0.01481517755374947 -0.001260439966447524 -0.005950702336483531 -0.004797199405166847 0.0252016620611106 0.007937686257810193 
-0.01828374874746736 0.02285244416885695 -0.008835549331324064 0.001620623669785405 0.01492702033880574 -0.005974565520548203 
-0.04225007213584706 0.001634229105860021 0.01674805547062855 -0.02595656718950243 0.01010767961420676 -0.0002281463587843407 
-0.03145013042407891 0.004203625580093743 0.009912323691929601 -0.01380663039221161 -0.002586188667043925 0.01532520516316976 
-0.08363025158588111 -0.06240504894042152 0.0497842463765284 -0.04582444505736762 -0.02538746319459488 0.04695355070432892 
-0.0469871620794662 -0.01919571000096259 0.03810064800614124 0.01726858543601956 -0.01964617517084536 0.003551770991184149 
0.02303979319964108 -0.02656760851608955 -0.002869659347504515 0.04692020126007512 -0.00489063965636429 -0.01046440311134384 
0.08090468720668993 -0.02564177345948354 -0.01779351740250018 0.008288529219847391 -0.001236526837231412 -0.05058119543159955 
-0.02695042241663027 -0.009429329678946004 -0.03666111206181561 0.02609624128611687 0.0257211363482901 0.01574091421952175 
0.001348387182556744 -0.008950835366292214 -0.01881096208279031 0.01279751105234522 0.01977041513208672 -0.02615108572864074 
-0.02290839153590425 0.0725514324427684 -0.03503043339356136 0.004173823439219752 -0.03044251253578876 -0.04170983959831812 
0.008074656677490329 0.06478437673309083 -0.01903461082720224 0.002937003683233965 -0.0135442800834804 -0.03159190788929783 
-0.01725064039463661 0.02745932987693817 -0.003245116763611899 -0.003463077150354836 -0.005011126081596654 0.003816762433180997 
-0.01661202022442263 0.0149517758672872 0.0129072088796818 -0.01178317607559956 -0.004456668695599879 0.01043182736084181 
-0.01684839294233991 -0.0002743618169359495 0.01946857885685133 -0.004059412249215393 -0.004726497865270574 0.005865810184235602 
-0.03245905721225101 0.002144306073871984 0.05227387021372885 -0.01975392670563097 -0.01957986337509124 -0.01153179152598113 
-0.05907165318450717 0.01191853981716066 0.07384816455297948 -0.01828025630035024 -0.04131958658022045 0.005838070379024303 
-0.05755023079146742 0.02703812398168417 -0.02419882472253496 0.05218513553453567 -0.007229597254434064 -0.01833179997050443 
-0.02660652131560667 -0.007230605398691145 -0.02439952620753835 0.05390564175286718 -0.01094531924376602 0.02366763335239091 
-0.02511680540090344 -0.02726112017817008 -0.04085468822074638 0.06216449926216798 -0.04969179720407867 0.02307938718634472 
0.03519780550323301 0.05936049696164418 -0.0437474212769365 -0.03934117153950326 -0.03324520973856514 -0.001096734315775454 
0.0322401051548863 0.09088207818991136 -0.03286033922060359 -0.04198986607165869 -0.03798266223666634 -0.02884202586667866 
0.121396339827746 0.08939274854815746 -0.0398936337421265 -0.05555730309837737 -0.0001959975785828702 -0.0667003190546693 
0.03382604350346947 0.0992027567692913 -0.02842442300867732 -0.03365943646234819 -0.034857221968263 -0.02411905247507232 
-0.003323949839356539 0.01140708939855914 -0.008953293710800798 0.0004304225046661191 -0.009101132062025834 0.01638162869472544 
-0.01557498542662717 0.003873642461688813 -0.007359339339063216 0.004995970954642101 -0.005749595880707473 0.01881560657445922 
-0.002587113105294972 -5.522723996428865e-05 -0.005632550516134049 0.00690828492884882 -0.01015583382054627 0.01122003031515644 
-0.0148565563557048 -0.01008762741495605 -0.005908532724446468 0.008577235770432168 0.002207945551467696 0.02169709117755378 
-0.09224344833188942 0.02520721368056745 -0.01791560806073692 0.008702995497509839 0.01902101466630593 0.05914325580065478 
-0.08010759654173767 -0.02801691840988351 0.06760137387593408 -0.03593910833117697 0.006896811595934993 -0.02169049485726684 
-0.02118654557485373 -0.00447428487268383 0.003411074266458829 0.005304552346717299 0.002563254963194399 0.009916225543972658 
0.005112918944805206 0.008334058531810507 -0.03522635049910905 0.02151655191174234 -0.01496432964219603 -0.008628937081423116 
0.05638644998696038 -0.02009154951288673 -0.04950264366783361 0.01598443810436545 -0.03286747567800958 0.03540819943618148 
-0.02415334476396426 0.00862288083324763 -0.03701043986771578 0.01047066910444865 -0.01836669206955953 0.01573099750946297 
0.03152020516902762 0.05832809203234525 -0.04742270774923116 -0.01989086953511148 -0.06106489767591372 -0.0235743458259225 
0.05410878371749102 -0.02171796786069766 -0.03379372768419291 0.0301163315087982 -0.03769174228464107 -0.009546426704162217 
0.0319359317479825 0.0009336050060066471 -5.117798223874385e-05 0.008034774832848365 -0.01048811231411396 -0.01050120688084471 
-0.01703458470064293 0.009610737085184722 -0.000337895955390494 0.009307577862979968 -0.003891054272090529 0.008734236493992449 
0.004771196565651103 -0.003851614716443692 -0.002191113845466684 0.01279134552536396 -0.008802390213475684 0.004095975101612137 
-0.03832465871012379 0.0174760340522844 -0.004431241667861983 0.01237049359210612 -0.002216582521768087 0.008209337706759127 
-0.02632160082275726 0.006236733031779107 -0.007542512263658544 0.02989273913131131 -0.01900172718261921 -0.01294874103699413 
-0.04251656623310519 -0.02697832045992796 -0.02116930481296083 0.03746512901817933 -0.01299387715665683 0.01734458315347016 
-0.03162727083457159 0.009879600094676009 -0.01790108700716749 0.006928315066136378 -0.005031124960510353 0.01182731693847051 
-0.06433152449606791 -0.04746254564633077 -0.005269159654122418 0.00745015681116246 -0.003927056473351959 -0.01883199531363786 
0.0642587076219223 0.02262743459505443 -0.03227340096918757 -0.06049152123368567 -0.01801478274336529 0.0501562382435628 
0.03057734179865474 0.08389262800134799 -0.01350727878321762 -0.06148617029455529 -0.02048826925627083 -0.01009664901823107 
0.07613114648979101 0.07934325032062332 -0.02628517042156974 -0.0712643102527613 0.02035319349565248 -0.02486938044185828 
-0.006290755620626693 0.09336983300663668 -0.01691381265403314 -0.0454083258694063 -0.02081167605405523 -0.01957374727396848 
0.01116399321658526 0.03068817773766791 -0.008857771429529121 -0.01773978298481935 -0.02670276673314533 0.003528372862243959 
-0.01032332996889639 0.03608315233360233 -0.008187702682853898 -0.008885702383826312 -0.006863207191791832 -0.004423382857919058 
0.01775392445010338 0.01846250926884797 -0.008934715051385498 -0.002904025232031826 -0.007492033000689348 -0.01826138615144503 
0.002800516198939539 0.05504132480366938 -0.02297144637901898 -0.01427097613263395 -0.01273151389684702 -0.02207961928073582 
0.009495772714515148 0.03694789626040831 -0.04136620500921315 0.007472702621228172 -0.03267698525830778 -0.04381791682059081 
-0.01134889459055504 -5.767513920028849e-05 -0.03216781884311842 0.0363978083907773 -0.02493452699511473 -0.01997499287527162 
0.002626853002758413 -0.02277807519784845 0.009749847379318641 0.0001944099799198415 -0.02365193139474352 -0.002405686200207623 
0.06195763946868259 0.008633822923251103 -0.0413069812139143 -0.02518381853586165 -0.03749198038195833 0.008973748256322679 
0.04250820869534021 0.02412394908904405 -0.07157524515050198 0.02945837737349246 -9.144913665295983e-05 -0.03438966615600292 
0.00394590506808449 0.0592150378763972 -0.0329196255705627 -0.01389748272037282 -0.04313650903960237 0.01738628645872866 
0.05096650476537452 0.04189751544531212 -0.04941707979100664 -0.004332293006121794 -0.05806870185074741 0.01908591177857495 
-0.0007066183921365458 0.007567181728699653 -0.004868027303488349 -0.0002756989910108122 -0.03741797842697829 -0.02493287373815601 
0.03688145615017269 -0.006718454970883959 -0.003955798538031566 -0.01051551417598872 -0.01644945193694106 -0.01243715547632872 
0.02171144736149617 -0.01211460015252489 0.003128473986233427 0.002588167063129376 -0.008246301874350674 -0.01160118034559678 
0.0004507583261076405 0.01064997061611436 0.004686822513131584 -0.001094115330901097 -0.00858349953750112 -0.001192738275975607 
-0.02401005825792605 0.008810543404022732 0.008107141681733468 0.002562243153109977 -0.01133703722277728 0.005863895777115508 
-0.07323916493903984 -0.01515172043377534 -0.02050388754870255 0.04090105340185131 -0.008225491123954237 0.026233905802629 
0.02432344947516245 0.0155650306898865 -0.01822093657917728 -0.01294898215494072 -0.01034333358743704 0.002043168506197402 
-0.02672246879911552 0.02147781517022114 -0.002092381963696606 -0.02039097461324923 0.01846024791395448 -0.0230162735474245 
-0.09340535636320828 -0.04841784306719613 0.009232702932297283 0.01427143820533209 -0.04217042019644292 -0.05079477989034701 
-0.03035071483171786 0.02096550342275447 0.01459340666540728 -0.05198400527913164 -0.06469746746036083 -0.01805527649672301 
0.04074510084537045 0.03359062329733381 -0.01064295295175351 -0.04108662516988681 -0.02703540420805034 -0.01281279177018071 
0.06906717888257526 -0.00319748744756228 0.01304674799634422 -0.03116608860926152 0.001454613539087756 -0.04128294094671251 
0.04518831804098887 0.04162437089430227 -0.009087116229744169 -0.05008253868304523 -0.04474432188613468 0.0269068481760419 
0.02863508215925706 0.02190086704395526 -0.01080778535177021 -0.02201784066976772 -0.01697254774849509 0.02731459003529667 
0.03037282441571405 0.00856146307514149 -0.005236954718743326 -0.01309288299636422 -0.01292610537771145 0.002190128744532547 
0.00909264877390578 0.009240751044698901 -0.003125193827516097 -0.01208421586209964 -0.01310819224746265 0.01403579966932092 
0.01702288298972375 -0.00270327086517527 -0.003373504281819701 -0.00839347193961143 -0.00586388984596897 -0.004147762078437381 
0.01638096878740032 -0.02469766806408816 -0.01482670138234034 0.00891645128987929 -0.01523561322236052 0.0158099791196505 
-0.04816286770004424 0.0005921114124667864 -0.006096340963849777 0.02607259384061464 -0.0008715763936116172 -0.0225798384277493 
0.02751232097113942 -0.01097440520023901 0.003692809821157854 -0.01536090820915758 -0.02352711470877187 0.002610811308405262 
0.04148496709943575 -0.01079473196429648 0.00413501677073043 0.006568824609184802 -0.03807873986665412 -0.03596958209393371 
0.01762320925844966 -0.03838137003439929 -0.04863583846872198 0.04288064995610981 0.01342185982522826 0.004057249024197205 
-0.01080322425513353 -0.02177033471545231 -0.001181275509351066 -0.01809350519829549 -0.008546563493996238 0.01647771545170888 
0.06219856883098623 -0.000732667715912856 -0.03125607008410151 -0.04196067587505285 -0.03116862690061408 -0.01008734892054538 
-0.01666492826803792 0.04834047434967427 -0.004574039724342611 -0.06110598890235593 -0.0531686507637853 -0.01233434793988893 
0.04061536317076311 0.01318226513532282 -0.009361932075159108 -0.01294398293038159 -0.02128420145169416 0.007749156474743437 
0.03814359771897333 -0.02805309423764468 0.0100913153472833 -0.003509609427209384 -0.01626141302445399 -0.006368864944216356 
0.01866125691686596 -0.002430228971740427 0.003068197214379857 -0.0100356050691931 -0.008981535563266023 0.01428987604439294 
0.04931416347094415 0.02786977444678141 -0.008718392017599325 -0.01517618558675265 -0.02467376666103526 -0.01146934831773114 
0.04359787401514061 -0.0112186110994098 -0.02293182922603114 -0.02639279700033339 0.01129246474123547 0.01725007888105895 
0.06096558054081899 -0.04838064461320816 0.00430081725640888 -0.03107208942486057 0.03194631765178467 -0.006894600517736959 
0.03563637639526181 -0.01604267969920056 0.004771602570303866 -0.0009858341300432358 -0.01949262272343942 0.003407731749987044 
0.01356990480379854 -0.07495658924216239 0.01207418870888009 0.01758341826310698 -0.02626519266340051 -0.0208358010793184 
-0.00193382482071177 -0.02941771323356115 0.03955448499800696 -0.01757089076333451 -0.07072949508304613 -0.03479308665286147 
-0.02878212065691134 0.002528685928542341 0.01243473649856715 -0.03640028051786611 -0.01434036138992546 0.03129179945082756 
0.04460720805104914 0.001355902935611706 0.005374467704690611 -0.05019122612802915 0.01772676226012429 -0.03815900692273837 
0.02891771130849068 0.02437251707641925 -0.0002546140364282783 -0.05325285663535517 -0.05348604027768616 0.03499910038522083 
0.01946364478792941 0.01685762272390066 0.01094271731380382 -0.02884220854851444 -0.01610927342229596 -0.01236415683455464 
0.01419627051810753 0.006610017955936996 0.0009187550632169502 -0.008191746935131996 -0.01048278947496493 -0.001179711977463445 
0.02744888234512038 0.029220569490514 0.007073902209166105 -0.03181365461039366 -0.01200247596180831 -0.01768283151793101 
-0.005388474877567564 0.02264101729647081 -0.001790901656797166 -0.01344478417735371 -0.01627173474512462 -0.01426531042215951 
0.0003078279635276585 0.03672344453374962 0.0080931826185373 -0.03430999724847199 -0.02587609252463822 0.0008608284460970703 
-0.02090707647353628 -0.0497160630744471 0.03059458724824748 -0.01893684576329261 -0.02865746518316868 -0.02000059541493182 
0.01324494405476227 -0.02693892025587494 -0.01008614199531644 0.016742522731512 -0.01714566138380422 -0.002615286096004996 
0.02707365204540921 -0.03028976909254071 0.04861231345787315 -0.02602985612534973 -0.06045555529888833 0.01857490677258284 
0.1324456358723206 -0.07038405846887159 0.005958762903172771 -0.01097881428804355 -0.0667764567649427 -0.0007497155928400201 
0.08115532818748152 -0.04594960989219977 -0.002916699781346336 0.001774313428037697 -0.04473820473164706 0.02132817463435053 
-0.03987563729144169 -0.01100463100737791 -0.01195177926632734 -0.05186173877375232 0.01249671605946565 0.0490523557201249 
-0.04993681952912712 0.007481763757671672 -0.01670045279080739 -0.02657998603976479 0.03138696567332076 0.006484949323322783 
-0.006066325100555551 0.004495688248655473 -0.003862732538669715 -0.01290307848488356 -0.005074883940419965 0.006630656349784799 
0.01641153661386301 0.003282483805588689 -0.001795408495017269 -0.01076063611086575 -0.01402550024320368 0.007000221098707304 
0.02932776820273648 -0.008880656065549903 0.005974353108189507 -0.01345288954785046 -0.01419079144721814 -0.008560043861397576 
0.01416026648330748 -0.001048627029357819 -0.003531798040096971 -0.01396178043563632 0.00509385089554683 0.002502515106234906 
0.0612352362607974 -0.007652430164969397 -0.006297981794909506 -0.03271960958889122 0.03206631944369199 -0.01450479814882124 
0.01793495754987692 -0.01150277132596429 -0.02491333283181137 0.009369827976018543 0.01175875333465781 0.02689744220019247 
-0.03068780069753676 0.02063373351153329 -0.01731159796732276 0.02473492878950024 -0.006581087560287598 0.03200779951722586 
-0.01708292149765121 -0.06319883588455744 0.006202476000584485 0.03959367652645143 -0.01561288358318569 0.01122568197558737 
-0.03374263749074544 -0.01781376174053235 0.02109634850776516 0.001969703290178012 -0.03562469081308827 0.01545899554780643 
0.004764575404347321 -0.03194163736392375 0.01295429914709176 0.002062805842824011 -0.01224384253692649 0.0002470856592991853 
0.002660296488640127 -0.05726644278145469 -0.003804550346008184 0.003743407362265225 0.04681925988067497 -0.02622430197098276 
-0.01557188436597032 -0.009453418119089658 -0.002643619547246471 0.0006145246877820097 -0.01649122516504611 0.03984049912758426 
0.01306307801050297 0.001305049503403005 -0.001097751169466836 -0.007003261512256278 -0.003053896668558729 -0.004812039806119185 
-0.008110586709648563 -0.00336842628880987 -0.00974991255928173 0.001241865428903191 0.01667168999722454 -0.004966489255842953 
-0.01197153074436036 -0.02894914543747206 0.008046615303754548 -0.009650848393679226 -0.001642161174771454 0.02034746042420353 
-0.008694726546993914 0.0188971810647455 0.02027839161547765 -0.02123869631631906 -0.01722192053821438 -0.01762555233549864 
0.05950254754252789 0.04033490214426104 -0.003984534994406881 -0.02552696544778085 -0.008975299211372686 -0.01812699522207308 
0.01493193985233887 0.003192151562878771 -0.01295380425849626 0.02550423680672182 -0.002675978473938512 -0.01777505833788083 
0.02018508380029732 -0.04801825257784796 0.02254558334950358 -0.03889209458163585 0.01007376781964998 -0.01975709438378286 
-0.02656233129007335 -0.0196550423223497 0.002882796970959257 0.01027134193358728 -0.02017113273573092 0.007643685307226956 
-0.004057744104377271 -0.08646608227084127 0.02833201665357571 -0.02275116401504345 0.02355459405696543 -0.02541193576449499 
0.02635322161218508 -0.04903501010613405 0.03551323762634406 -0.03490522514669051 -0.02084064736106073 0.01778332161119956 
0.01602166221766971 -0.01849910918052143 -7.603505352206253e-05 -0.02348137442892187 -0.01308297825390303 0.01630894233288771 
-0.003542640630694517 -0.02878215936216654 -0.0006176237194751843 0.01075293119370014 0.01206158099176063 -0.01107267990169759 
0.05210143583986249 0.001665705680096439 -0.01215786795567244 -0.01418302072065094 -0.01489338477777991 0.002016102795492685 
0.02670534578921775 0.003214510275020495 -0.005617142812857379 -0.008170461744980177 -0.0184580739556252 0.01932820303426465 
0.02246217075567687 0.01855820247749129 -0.01741089870017479 -0.02295547327386975 -0.009650357626752832 0.01343381577483904 
0.01134658035092049 0.007178407626074404 -0.01189647754637275 -0.006533969054367992 -0.005216054947535703 0.01394377424489017 
0.04533617023233404 -0.01782073703387538 -0.0437027551823076 -0.02314892973370823 -0.005953778655892679 0.02205516399512319 
-0.01581913747162551 -0.02622493239340282 -0.008296604374980357 0.009427391242447229 0.01392780701378465 0.009342860260358205 
-0.02060080914746423 -0.001979075766441599 -0.01605168186816141 0.04072168309906916 -0.004648749343620564 0.01966494058858441 
-0.07965355162324431 -0.03260479370565626 -0.04059648984352483 0.1155998526257665 -0.02894897961691731 0.05475030267279256 
0.01006372965561067 -0.01216449972528798 -0.00303569775560719 0.008415540403937997 -0.01372056170752142 0.01423871046291286 
-0.03592183146250296 0.007513478175085693 -0.001182729307280431 0.004989639725502496 0.01471570419123662 0.02061936361929237 
-0.04341133558952064 0.009622592682683246 -0.01215420321172329 0.03507398548238418 -0.009923580964368253 0.04343496866012991 
-0.02788749181170463 0.006988253687314638 0.01193149178151315 -0.009906238650362064 -0.00978588295902753 0.03292717508662275 
-0.01090947993708105 0.006513104415164855 0.01022268309606242 0.005029115193928777 -0.00738220617047784 0.0006303606165932216 
-0.01907198773095143 -0.0005559155919996376 0.005138040458914399 0.007453084420244914 -0.004430781441336558 0.01117796474475521 
-0.007025536630166866 0.005422575091369594 -0.00227368055882717 0.003505902267303164 -0.001961388134361421 0.008965802701424368 
-0.03217192709532294 0.008990523876554286 -0.01170522303816643 0.01038839171734217 -0.01246379072045951 0.01328633433625714 
0.01407714205517462 -0.03344051460585351 -0.01209891641884891 -0.002665511504177824 -0.02996516637706752 0.04874312303520315 
-0.06794917830403253 0.07765100459404624 -0.0143544378947124 0.02689797394437923 -0.00659581996280831 -0.02089527459139304 
-0.02568529449040452 -0.002669641937372117 -0.009074494637734331 0.02401727744791642 0.009511647640197995 0.001041583671500586 
0.02210487372118549 0.00321463976234007 -0.01614940287326313 -0.01571487821537321 -0.005339397183357704 0.009240084009120525 
-0.04129832377994745 0.007091029054873753 -0.02268958000768077 0.02928693155543145 0.002806409899527892 -0.0009661882603023746 
-0.03066961168439039 0.01537644217259337 0.00776069477843508 0.002713035559271783 -0.01819318283164336 0.0137743965207536 
-0.02030732499852097 0.03214197590763615 0.006629161374561194 0.013535721229941 -0.01186059274442583 0.006708045361220787 
-0.0521784430651393 0.03408834891587742 0.05675696544456051 -0.02010690843775798 -0.05502147020205318 -0.004306173289849722 
-0.03368146205699128 -0.005746979088409452 0.02140256700803069 -0.01542800827241923 -0.01696760919464825 -0.0055305525731644 
-0.01495387140017438 -0.008709136636850539 0.005243313504404329 0.005001482421128431 -0.00828613962475626 0.004897136096636024 
-0.004990370810286407 0.009944301030665504 0.003202268732102811 -0.003953095822465578 -0.01545474416439978 -0.001156396854728373 
-0.01669310074862499 -0.0004606617070005729 -0.002473177227248217 0.005130075630691205 -0.004161650684652319 0.0118940434286749 
9.979673586489551e-05 -0.01282349833002834 0.01942876409209196 -0.004948271119215701 0.008639636964996471 -0.0113794528385397 
-0.02712065482564849 -0.01702945897633979 -0.007445801931588445 0.01149407970018992 -0.03186377154225123 0.02920405473584373 
-0.03327605019665539 0.008407052488302227 0.005430952188653951 0.01483514198506585 -0.01357426771713183 0.01050011249720983 
-0.004283519600353707 0.01614172682064738 -0.01798924436089357 -0.02225809865161296 -0.05559788661397687 0.04916041748168715 
-0.0009276776465173583 -0.06506095298679118 0.02662917057207033 -0.01346823105222187 -0.01910524435267405 0.005512234759840209 
-0.02406822623624376 -0.03361179905973002 0.01343119041162894 0.01216371174989596 -0.01036759108686209 -0.01417332645807273 
-0.04346326569074761 0.03331900509074023 0.01032167716166347 0.01364056885094747 -0.008865597095328966 -0.001909611029340634 
-0.03927053864956147 -0.01520692221738869 0.03940135362718071 -0.01186662658326606 -0.0385438747006791 0.0364286770951305 
-0.01752175915847473 -0.01099075641461594 0.02358522651251527 0.001458156781552228 -0.007609879511723348 0.0009896142607247612 
-0.006890870316279257 -0.01149912124004465 -0.0008449717431282082 0.01036716603425696 0.004722801459659175 0.01126169478836154 
-0.03254665186297075 -0.01755422205569367 0.0003376294646613374 0.01278329805860447 -0.003345730190321789 0.03624508516114017 
-0.06517277016854363 -0.02355251124191251 0.0142840615438856 0.001650724379344896 -0.01183778160297424 0.03247711368758655 
-0.09776060067409281 -0.01165729194982445 0.02869324535509626 0.01913719815418782 -0.05472266218564941 0.04996055281164555 
-0.04938605450551778 -0.04641506506701484 -0.02793915899683929 0.09892210577612635 -0.04106443125875886 0.06482988088302385 
0.0113014413953991 -0.0004918820728085221 -0.004253294375105431 0.01366614019847014 -0.02301270245021112 0.02204592929309727 
-0.0151309986271334 0.005504403952632786 -0.006288200346118101 -0.00756830243626124 -0.01998429983960668 0.03362653526567457 
0.04607538560233275 0.01169960627830958 -0.06275478697757875 -0.04055541052739618 0.07780428260728897 -0.02778142140387572 
0.01879035916336833 -0.01054406369703121 -0.001920874921767289 -0.007391902110121799 -0.01506075848713175 -0.010863011520854 
0.01781137042292759 0.02732284202148242 -0.007491138781535873 0.002189394325644546 -0.02884351303704435 -0.0190069894906688 
-0.04196307370523694 0.0144410696263522 0.02067179743586785 -0.006420246839552932 -0.01238979227129491 -0.02907826878918595 
-0.0348175321031431 -0.04053627282665383 0.04514832083608177 -0.02355269569102681 -0.02741717393653365 0.003244684182547762 
-0.01335769896621962 -0.02230603883813774 0.02831512688397936 -0.02420550836619021 -0.02688151335395644 0.000125228342291541 
-0.03279945249644393 -0.01678529709695262 -0.0008598419239437709 0.005505208583608838 -0.002819011072848152 0.01378255751646426 
-0.05520515619527375 -0.007163717544173337 -0.002657808525015808 0.005224355347941421 -0.007580862422329184 0.02871202783786488 
-0.05576463419350497 -0.01759263563582175 -0.01939590116000569 0.01704520049394447 -0.03832820056677652 0.06772399656373514 
-0.01418799009101853 0.001357134892255758 -0.0007994282794685621 0.003850803569701442 -0.04452727043133047 0.02929811756954362 
0.007080663226970154 0.001426404383422829 -0.02122364001396435 0.01249157213816919 -0.01762953582916442 0.002507051346382578 
-0.03112225777204723 -0.002499367232973936 -0.02463412046278449 -0.01867243530556784 -0.008628083389127392 0.005655671958973207 
0.002803105403160535 0.002348463045475251 -0.0390690461642921 -0.03957819703670789 -0.04140073316354358 0.05264012372598988 
0.007639089149007762 -0.01752898435028476 -0.02920385850253174 0.01243006723362061 0.005652818942483308 -0.001758480263023597 
-0.009653550893806633 0.1002021096208058 -0.03110379648971342 0.004124074137605556 0.03641312325287881 -0.06371848481603438 
0.006397233857131247 0.01247528902589486 -0.004274248164508437 -0.01090170087534269 -0.00169065241548636 -0.03263666548427276 
-0.003003650271570193 -0.005771371608643192 0.01416161211513732 -0.01284742923864889 -0.0005326399438231864 -0.006735583875398586 
0.009407703462445724 -0.004855964027850411 0.01011653851537266 0.001483873224399897 -0.004013477229540537 -0.009716214321429748 
-0.007691889447289811 -0.01719920799113415 0.03342137771060331 -0.01207399474144891 -0.01155789027531649 -0.009012651922218553 
-0.02789183839473831 -0.03210015379159684 0.0228728946138581 -0.01117384353624538 -0.01054191077630541 0.001676805925005331 
-0.05161602057419298 -0.1045501181273734 0.1051312853950501 -0.05580008929652428 -0.01965952070513673 -0.02240452694782661 
0.03766089702769725 -0.0329906317527186 -0.03209753815397202 0.04059537812691439 -0.01655807174788635 0.008717500142182009 
0.05188689995006235 -0.01533253158267432 -0.01597948712517287 0.01436955747026639 -0.0154125226191565 -0.02889704162392793 
0.0295173807517934 -0.01749046692413229 0.006237393984517873 0.01506231128531891 -0.0275236285694287 0.006099887857693624 
-0.04784004677232636 -0.02078320822473375 -0.02737022730207972 -0.00358581393568303 0.03979269112840098 0.01324859564230199 
-0.03331964513912597 0.0001740185494957554 -0.005650616539401924 -0.006221871009812294 0.03777460001736323 -0.004903093410724084 
0.01992902849610541 0.0700481780030861 -0.02634104987690012 -0.06209580861202603 0.05312376985110836 -0.05466280720572653 
0.04317467060862938 0.065988772146683 -0.01308760426396351 -0.04539703592095006 0.0005649416022456188 -0.08954475479776132 
0.03440717448286287 -0.02719183445185772 0.00473907475605679 -0.01622812991478709 -0.005344646390750497 -0.02029487676544923 
-0.006983583508565481 -0.01740752594304663 0.02196963682589806 -0.006118448992021281 -0.01535260659176158 0.000992027233187221 
-0.01294506811245911 -0.004541514808864601 0.02269907541483674 -0.02954863411727001 -0.02706428081225163 -0.001086985550771297 
-0.007523805156804302 -0.009431274767416795 0.0178007877978762 -0.02460330741509831 0.004606861865758016 -0.02837255524305789 
-0.07388493043564567 0.02188536332756735 -0.0005988308805312091 -0.02552980590513207 -0.04222817873358325 0.03579423308878874 
-0.05991501489587471 0.03516461025691375 -0.01118125973850515 0.02672445050365679 -0.008692963648483765 -0.02478527697057041 
-0.02444859619895413 -0.002337047128346979 -0.03483159199060178 0.05200204468790927 -0.008739138685059003 -0.01730054435496834 
0.02138355951525793 -0.03266778488156495 -0.04681697527472924 0.05266254420932765 -0.018467109024154 -0.01495955169567014 
-0.0112877536178426 -0.04735439450053077 -0.0310641202114729 0.006005311084815321 0.009408490076556222 -0.002547847663326416 
0.02380791727522137 -0.01767420142188286 -0.02947118709833077 -0.00974204761075967 0.01344278786895223 0.02316474067182023 
-0.01264048738382625 0.02982383113111585 -0.04061422861824841 -0.0113021428587399 0.01672044375752076 0.01425940010892269 
0.02476060472005961 0.02091200285523375 -0.04483218484268046 -0.01224755904345112 -0.02651779591639278 0.02279309419773694 
0.02070998595033957 0.02447085651440577 -0.01596521135276091 -0.02362310884628873 0.000414680864382869 -0.01064866173922952 
-0.02076162846452435 0.04301347374559221 -0.01125114456981591 -0.00729960356449509 -0.006992059913753024 -0.003816590208994062 
-0.01860267587559349 -0.01512783499363858 0.03500590282432445 -0.02529992185971315 -0.008497715117718825 -0.0003102911353948931 
0.009939242492926079 0.0004230229082346371 0.02701739457551892 -0.02261866996632252 -0.009888346156635877 -0.01968987610619481 
-0.03643122166184206 0.005685174256166128 0.02458940281397433 -0.06652015213057513 -0.02328447575308021 -0.01918538944219364 
-0.01869264711681973 -0.05854004041078082 0.01166841601951306 -0.01219476289266883 -0.002015268001261135 -0.05087701719344303 
-0.03398342938111541 -0.005369610126094672 -0.0339050992595828 0.03891210987892128 -0.02165072681029825 0.04059389485100173 
-0.01152410406577366 -0.006296819629349161 -0.027499041159854 0.01515247269328021 -0.01975166823581965 0.02770553977695043 
-0.006884235374150941 -0.01800985770770829 -0.04470631176802799 0.0954552978046912 0.0221649652877192 -0.0126965021675144 
-0.0144844601649225 0.007002984648203376 -0.04980537366717061 0.01913495074328609 -0.01760295890123646 0.01995620930465923 
0.01321010500650272 0.08946453732197107 -0.06547346838441021 -0.05716488514376343 -0.02495811357641293 -0.02126917456956846 
-0.002511540777180695 0.07432426795759015 -0.03316419164102786 -0.009480566785063975 -0.02181007044952835 -0.04164350653952936 
-0.006920479276265889 -0.005704266479049616 -0.01804016220749718 0.0178372936996475 -0.004527652861896498 0.02693136596318544 
-0.005696162754066668 0.01024403788852541 -0.003382522776646366 0.004933097133315381 0.003410423318257725 0.01176437665383346 
-0.002016854730350196 -0.001978104358555039 0.0189071553099646 0.003799800265158402 -0.01255186151739847 0.005422603040204419 
-0.01559332696064074 -0.008625585605582874 0.004957461425833082 0.01095369205103866 0.0151776089501534 -0.01208526498636756 
-0.08674999171374873 0.03773013061819554 0.03284109192358006 -0.01970059126259675 -0.01457715707189204 -0.01653839004867523 
-0.01535387855359502 -0.03584998756991178 -0.03633256519893915 0.03735472514101961 -0.02578343919112811 0.01567224490285403 
0.01536452445950624 -0.0286180016600943 -0.01009148493721119 0.01975421961123105 -0.02170626513231786 -0.002299248316111384 
-0.04312588301711463 -0.03669335370156839 0.0590532972574614 -0.04000815880642626 -0.06130288242333818 -0.09877508816919164 
0.06606908272804199 -0.04524829872096631 0.005370847272607265 -0.03153383816464405 -0.06029114128871034 -0.08303784767518375 
0.04187004273521001 0.04530743167041101 -0.03135899008598438 -0.03487579395622332 -0.0239552866652694 -0.0202755328110149 
0.07191282934779321 0.002931726373040948 -0.03877195822350055 -0.03554554524477409 -0.04738256892457506 0.02140887907668216 
0.002010780357907393 0.01053585013672231 -0.02582354745148019 -0.01718536915147029 0.01055384260866382 0.009174630722713522 
0.0006198425605627688 0.001201450669332593 -0.0125069757490887 0.001410126732502063 0.002375817349895575 0.002273632015221105 
0.0114426164998644 0.01722416375983949 -0.0185959269283765 0.004496419440056135 -0.01070229808143577 -0.0110287697944469 
0.007518683458906351 0.01580525189122346 -0.02691303218311947 0.01384421577873799 -0.01429859191604037 0.003005792345721783 
-0.02015187559013775 0.01387336851497515 -0.02582335739475019 0.02589422502229579 -0.01230653885732041 0.001985206975146463 
-0.03025058595740744 0.01538341696040021 -0.04919734526562983 0.04211451359086849 -0.01151858097957971 -0.02311673763551935 
-0.02781742042590175 0.01908509048359793 -0.002656401067360524 -0.002158184930333395 -0.01659204136580446 -0.04166405683075861 
0.001512129385514277 0.01287360678481564 -0.01571987885829003 0.03056885982666235 -0.02980535064299812 -0.01542824067766618 
-0.01218889721581303 0.00187891472105071 -0.0319216891185732 0.03239556055516301 -0.03973441571724229 0.03383323547553004 
-0.05823476572757217 0.02052797890150614 -0.0370008957152454 0.05599445660246908 0.02438137431052391 -0.01115883970820745 
-0.08194661849627298 0.04086772845741451 -0.05921331910095481 -0.001104532744561435 0.05809029460052065 0.02427301566504015 
-0.01282844385737092 0.06005089120201965 -0.055122860874645 -0.03822991754547324 0.0009221322332300285 -0.01449710230465698 
0.05762224609783908 0.05529687074307495 -0.03330707278374465 -0.105766208716287 -0.03692770154662563 0.01279454206602911 
0.01359793829275108 -0.001002514975340969 -0.01742127655098244 -0.01101907236135865 -0.01554401258950764 0.02475480843729195 
0.005476256009497312 0.01318264047964651 -0.008359267976333119 0.003771893608580326 -0.01071525750936163 0.01626758862537653 
-0.01621821817509766 0.007968113077010794 -0.01845906124049452 0.02287859824688268 0.004528863066447463 0.01156321776066787 
-0.04013911949567296 0.01895818895987889 -0.01231993943110884 0.01144745733778598 -0.008000564112182867 0.02649011673000034 
-0.0287518648024899 -0.02543220789427497 -0.05726883656835423 0.08077353072484156 0.002083289528561147 0.01500636839092629 
0.03751936177930618 -0.006590992030644584 -0.02631824172127712 -0.004522721058119799 0.01875073437204611 -0.006186992467904081 
-0.0635106457113839 0.01134887715899765 -0.01026537560241748 0.01788877266146604 -0.009809135036344757 0.01452146420599281 
-0.0649525243522618 -0.07207388911587277 0.002195661614476337 0.05549315956436024 -0.00380313266138139 0.009410665390024033 
-0.0624574084865758 0.01540936162220595 0.04843432927989232 -0.02829308110335913 -0.03479030104066395 -0.02645450938923121 
0.02157689789228967 0.005431876308489851 0.005420435650931675 -0.02023925751228432 -0.0381578682731949 -0.02888849586364998 
0.01258026806252877 0.01065974150918108 -0.02030178128216514 -0.03728310919681811 -0.05391975924441389 0.04867002086757829 
0.03276271390024534 -0.01469655491749559 -0.01632754652337012 -0.03117557541533722 -0.03152118195899299 0.04137587464316207 
0.0250004061297302 0.007042540044447577 -0.003100901134034649 -0.01108999538832925 -0.005736319498640393 0.006452675261309578 
0.02817534401604204 0.009330428460667685 -0.008008835617779889 -0.01502000838364137 -0.007777347003031551 -0.004154981655795587 
0.001892618244036211 0.01251309931659159 -0.008142793790540084 -0.006171389083195335 0.002832866348426083 -0.005306616470213166 
0.0397429685797229 -0.01673789495543246 -0.01736653346391461 -0.004366872086780929 0.003146939358387404 -0.0128981148831821 
0.03741077757572445 0.008547336312963503 -0.02087857289039763 -0.01866989925043437 -0.005615238670440876 -0.04346434795229231 
0.02625402832435402 -0.04002054083588581 -0.02948146735205751 0.006950939057335202 -0.01727309059860651 -0.04936545469611001 
-0.006855703379492897 -0.03161880288632645 0.02811990932328295 -0.005303477976051994 -0.02616558246325162 -0.02104012995773684 
0.005575582873111685 -0.01965793943432611 0.02479287154085597 -0.01595904563514472 -0.03215757180022244 -0.008472106388461673 
-0.006083738694375063 -0.02916915348957776 -0.002019977249505142 -0.01584551029377523 0.01685494536603263 0.02082254437050355 
-0.007152816329837317 0.02481295271153175 0.001052280539594819 -0.02087972228924783 -0.06069397131928134 0.04476990237816607 
-0.004399250927885372 0.03000386819827695 -0.04723667400601859 -0.03947225464308395 -0.0716062621812231 0.02973158908603286 
0.04962041387594703 0.08080545130191347 -0.02284398723270548 -0.08671063689162928 -0.03595013755278857 -0.09610325077355972 
0.02167500957156671 -0.009944750668371291 -0.01342794721099492 0.009725700797837963 0.005102325486530336 -0.0009830981295056579 
0.03057425349722127 -0.005975293883553718 -0.001364142585123112 -0.007119252440352205 -0.008507187361240879 -0.005239500832684123 
0.05732023767005024 -0.006445871931865853 -0.00667237635686785 0.004647907650551071 -0.02839162393103007 -0.01142312146032231 
0.02319358865749904 0.003718314078743792 -0.01984930682787178 0.02387935200622761 -0.00244532381821065 -0.01541588814191203 
0.03074427241339616 -0.001341581146456041 -0.03209535404329424 0.05541976990491659 -0.0018927276795947 -0.04141081781743911 
0.04898248394054096 -0.02026136739245215 -0.02264000593387764 0.0009564689013912415 0.01641498800884226 -0.01384920336070499 
0.01155605386010388 -0.006771204151025243 0.0008918457060356249 -0.002632291802960627 -0.02914581002691752 0.004038171216371047 
0.01373218196902783 -0.05499352631910132 -0.03345562971431827 0.03335395656516345 0.01556538182906918 0.02057709979620748 
0.02375725458918829 -0.01401428859787519 0.03711405800521655 -0.04301282035589012 -0.03844843499006693 -0.003414463152163183 
-0.02857804004385811 0.0006015700671699496 0.02596262906664496 -0.01723910032489899 -0.05793518616173152 0.009789349359649561 
-0.0308504931290931 0.002723913910948749 -0.02531844780399235 -0.0219706556274618 0.01750361558944204 0.02797123359291847 
-0.01908868284249834 0.009050549796075329 -0.003115411276661834 -0.02919811337839735 -0.01883939050066429 0.04151833998282454 
0.01460827204108652 0.007518350077041242 0.004115102702543364 -0.01449385857445981 -0.01340987317390398 0.008782153994384177 
0.0201263233671891 -0.002530655679580541 0.004738821872584838 -0.009434147374074052 -0.006769709480984593 -0.01316844141168377 
0.02125706351402425 -0.005616619234242946 6.236855936799735e-05 -0.01021976648729502 -0.01488474989979169 0.003534855708964064 
0.01084676116869976 -0.009547577521260817 0.01114108683521901 -0.002691429360791852 -0.01303086152294958 0.005479990640369629 
0.02940174789569016 -0.0003243581722393527 0.004195472046324716 0.01552581540134458 -0.03534483295911254 -0.01316877897615697 
-0.01460188784728207 -0.02926820377991485 -0.01089185420284491 0.02776325376971428 -0.03889046054310637 -0.03527357328060282 
0.01009784402293487 -0.03760251725521118 -0.002191964876702731 0.02640964749271535 -0.03062296952936237 -0.002976213353075059 
0.1232393312396126 -0.05506305076602411 0.01823893587160445 -0.008490155998964004 -0.05948520423182255 -0.03584714484347245 
0.1790085429076757 -0.08785317768016691 0.02887410537917765 -0.06600348118133584 -0.04198615332731903 -0.04588260449476976 
0.06718804169970868 -0.04717051989830257 -0.01015605104128475 -0.04152143844807069 -0.05196188616074618 0.05230621385228183 
-0.02180568474096731 0.03721408706538158 0.001493878177546809 -0.06973330555355109 -0.09556506791128452 0.03703996441985259 
0.0717689022801858 0.122613091149215 -0.0265202968373839 -0.1043455190303433 -0.01335076203846528 -0.05440362056399851 
0.05006410317150365 -0.01622409558642852 -0.002804160876995239 -0.01177822956400997 -0.01369028677958193 -0.007545520113225691 
0.03042705481696198 -0.002918825229835149 -0.002766164184800174 -0.008211230788484288 -0.008169027596372577 -0.005961057149469268 
0.04440621576274851 -0.001344146543334896 -0.008343756135949921 -0.001692991395749177 -0.01367742947026551 -0.004397192003607472 
0.03107859686337131 -0.008946375264655519 -0.001633678500300214 -0.008107193871975345 0.02950208976213856 -0.03661562950360429 
0.04204917768581271 0.01350085108790699 -0.009502586477815909 -0.02235222380166734 0.02807627836029949 -0.02900354769056162 
0.01642014439231149 -0.005210454875287667 -0.04158824645397968 -0.001460723213721836 0.005272672079036069 0.02647273829118861 
0.00386288016289628 -0.01855624526390495 -0.02709316717636773 0.04008905368347213 0.008403124825961412 0.0166593324970659 
0.03004129298543134 -0.044956690346385 -0.02861754729897547 0.03612778472548088 0.004039707678240964 -0.01331115990848171 
-0.0137681964603914 -0.02724674850302266 0.0005410890398509302 -0.01901917661492717 -0.01352445647013173 0.06909580646988252 
-0.01152546444268167 -0.03889456530457574 0.007709948904549166 -0.001648427754894181 -0.02234202044966524 0.02254799506842829 
0.0360258371132372 -0.0239151222740474 -0.01698441201224416 -0.01399839076838311 -0.004057260099091274 -0.008316857018739783 
-0.003264022222899357 -0.007892796081697989 0.01010530364057774 -0.01770433830209548 -0.003718303305976218 0.009477316786669666 
0.01048153854094678 0.01442613709911641 0.02079698849231355 -0.01696678794172499 -0.02594108686612067 -0.01973153605005849 
-0.01170244943283566 0.03341493437473911 0.02122774579441812 -0.01182984757035217 -0.05083491300523999 0.008068315389784588 
-0.01601189751883349 0.02584856843887753 0.02268260888937576 -0.01562765298477917 -0.04083484020072431 0.01382978446262305 
-0.02411866067663869 0.04013975968479624 0.01556319850504106 -0.01043312734121357 -0.02874000301690249 0.005149326103964631 
0.009560026851112723 -0.01987567199099094 0.01518761010418107 -0.002082437545370404 0.02595132101955584 0.01455575870935766 
0.05836848565407275 -0.0404430435817819 -0.06259598947946224 0.03731542077953622 0.0102471071506788 -0.007290527678243249 
-0.01374064863624853 -0.05097690792341302 -0.02198391543600403 0.03779029119717396 0.0008378272688607933 0.06177109554870686 
0.02623841851007419 -0.02626109500146424 -0.001281146556181625 -0.02484775114809917 -0.01123833574340626 -0.01112314393555962 
0.005436602381716706 -0.05128314297694574 -0.05102523766502934 -0.00442407382125301 0.1408462802481664 -0.01771064705840764 
-0.01826739524381753 -0.006776417880087695 0.002285951925133765 -0.03114454147597012 -0.05948521647359088 0.04078625100671942 
0.04774408407058801 -0.03276994825549529 -0.005990203362555587 -0.01336346817234606 -0.03765100253178026 0.01230480661987285 
0.001009282810013766 -0.00227326012671485 0.01200684560057806 -0.00948676838733384 -0.008628036952417456 -0.01204123788919525 
0.007880528627125767 0.006605254031501555 -0.00165313567741127 -0.01183005263143455 -0.009879744397195366 0.01385834355199829 
0.03741583074216635 -0.01333903017974116 -0.001997595681526011 -0.00776709376847187 -0.01046969471038233 0.01517446464240511 
0.01424100535521317 -0.003024648827393018 -0.007972598427054708 -0.004610125519107808 -0.01199501323749769 0.01677712676318168 
0.02892006911170448 -0.01244016483929948 -0.006933581183068017 -0.01008268032745181 -0.01767932048961769 0.01040440235876694 
0.06354938051098473 -0.003574703356675937 -0.02232400311163028 -0.03023245050302091 -0.06104498723786158 0.03397412587279665 
-0.02901250604752189 0.006643216952914962 -0.0009012875731199904 -0.003237299910246447 -0.00515073795509062 -0.005856379393893014 
0.02670083616417925 0.01343723845603814 -0.01491467501596569 -0.005408577626673111 0.01657506241447358 -0.001721454673776867 
0.008507139074750376 -0.009290795575371196 -0.03013688545317764 0.035364305544905 -0.01990679145928707 -0.001919199456856026 
0.01125845163576377 -0.01640211529597534 -0.02147996411172404 -0.02213037049270035 0.02777585919804353 0.00819332187265364 
0.002513366330538003 0.02588752014363393 -0.006728374332520373 -0.01449927789991523 0.01784185403965884 -0.01591572940655521 
-0.07748416103809767 0.03607020668754886 -0.04226500526114684 0.06861463859905981 0.00357533047465702 -0.000456137199889762 
-0.04732367831339473 0.02152563875120179 0.01208172701051423 -0.003381083166232473 -0.02378884931527481 0.001750682900590498 
-0.04231664321774265 0.02582252774917865 0.002267047553800736 -0.003888590413147261 -0.006163797417230498 -0.0001314077837999848 
-0.00620004599388243 0.01276109792028282 -0.005292477875466663 0.0008764287756830198 0.002099098814082949 -0.001270106858982761 
0.006618390426417156 -0.0008838151217259128 -0.00214267644106474 -0.01030001424544522 -0.01042044572705034 -0.02385592597467642 
-0.006706504942546741 0.01021624214298322 0.01113032282428671 -0.02667097991687297 -0.03951328049971031 -0.002975258956069699 
-0.03610374748787381 0.03179462831655994 -0.01152316094988101 0.00833412744992775 -0.04102528161567606 0.03672089738391779 
-0.02019577523818211 0.04209630922339908 0.001142344444681975 -0.01909709892362843 -0.01230853646865423 -0.02284447190672447 
0.01807954432913481 0.0139070405231271 -0.01683067499195529 -0.004215740936517247 0.01209987654366926 -0.002611412573192409 
0.0007657566766031338 -0.03543268173835522 -0.01564281970313828 -0.005074077270393224 0.02460383773552613 0.03293041081164675 
-0.06561464067386313 -0.01801351170792587 -0.04829638519494155 0.002400686472040678 0.1152902059854766 0.03869310588941031 
-0.01019994063258517 0.0008498502100467492 -0.009151257959324935 0.002183324123970811 0.02037549328049339 -0.001870225471480207 
0.0196444134163812 -0.0009561091745808656 0.0004713672054996653 0.02169684299477009 -0.005307205083661368 0.001892677111939253 
-0.03444005810155277 0.03474501546950353 0.02982780086810268 0.008409507343228394 -0.02701432341264385 2.109612440724718e-05 
0.004735334861680852 -0.008842491669315874 0.001634341445106632 -0.00218284540551275 0.00326976478853447 0.007989292643919708 
-0.01470479432766668 -0.01084448739334629 -0.002544297019180084 0.002973946075510092 -0.0007990770069068139 0.01616148056831878 
-0.01593701382180669 0.003054905231446852 -0.00360048522550336 0.0006474213155492267 0.001976243597349154 0.001477262717939132 
0.008254455945318899 -0.008532618361437717 -0.005642233001224084 0.005456640671824776 -0.005395465307104014 0.008132321001527299 
0.03637036577799156 -0.03630742923874274 -0.005061525989621802 -0.01162288693942642 0.006826023100413947 -0.005606435464065821 
-0.02263732666720761 -0.02721147672372591 -0.02991414834676252 0.02336617360064874 0.0650304811851109 0.02048473140531114 
-0.01707932223406828 0.005087885684088164 -0.01551727820820028 -0.01925919873400073 -0.004003077441763109 0.0004936729591440177 
0.03463684173561863 0.02105202469454382 -0.04815958650318432 -0.03205064282691905 0.01017986751398376 -0.02740772798096761 
0.03402906829944565 0.0007059414043040938 -0.04647810087359717 -0.05124114075177422 0.04594551464765729 0.001970697221510193 
-0.01024017305908593 -0.04003145033269018 -0.0214563457737234 -0.007576045180756739 0.04333477111836142 0.01374381038759162 
0.002666866248364238 0.01181137447701492 -0.02554535823778688 0.0138227499554512 -0.01048671702026217 0.005542633077309058 
-0.02010000423771225 -0.02513057226446924 0.001211173778812494 -0.001784271853924041 -0.01831476871682824 0.01398562431392694 
-0.0242455206906079 -0.02851988962897216 0.01648389802211002 0.00293212716610609 -0.005374990745796351 0.02209001298615448 
-0.005029348167136936 -0.03149917219015275 -0.009726568797393375 0.01126888858897695 0.005125848939486219 0.01539398845233551 
-0.005199374428340668 -0.02691815015388611 -0.01017057691644335 0.01067109461177231 0.004391745006663993 0.01546296680952631 
-0.0144488600075784 -0.02725419672668782 -0.01028568469210197 0.0091079907242435 -0.01261016671837881 0.04065206743437615 
-0.008134776807171144 -0.02071838041671957 -0.02624174459417524 0.05634750224547672 -0.02780163765311386 0.02185761655612314 
-0.006016620291877071 -0.05690626736185653 -0.0472321556838971 0.04506326525048086 0.01321628236337806 0.04013593284989587 
0.02757116056874448 -0.04369889346215566 -0.03455060331861248 -0.003659375668721414 0.005888296559650074 0.06199219895122279 
-0.02722550184452106 -0.02153164607993207 -0.04019782262127492 -0.02058734689820561 0.07551709392692786 0.05283539876334203 
0.0487815784094987 0.0007145182368297932 -0.09002798728248233 -0.02126503956065265 0.05771708394550153 -0.01650194488542709 
0.02847937134180209 0.01653915047849934 -0.02334785525128353 -0.01101777881712855 0.0083066230595716 -0.01600860327104789 
0.02259836324960099 0.04165825710828516 -0.01624279115932727 -0.001509952426669671 -0.0136935928734774 -0.03264085148734781 
-0.0162142385036332 0.01626901290583721 0.06810901700259031 -0.01618213521124465 -0.02137641339576413 -0.0925279088885175 
-0.03621754947420133 -0.01394985201222424 0.01604121701364222 -0.02449666253271278 0.003288105226932507 0.007667766665261569 
0.007967262605368187 -0.02608473097831941 0.001098685870885866 -0.003643964937069622 0.0120849651396041 -0.009641636183991005 
-0.01178017473238803 -0.005971371354567276 -0.0003342609438542508 -0.0006582174956474354 0.01514940040410923 0.002267735721639391 
-0.004572556133471324 -0.01804846379472219 -0.01463154668928496 0.009200836476664913 0.0233517693937189 0.002423077229897401 
-0.07360309559746049 -0.006943325290704859 -0.01612803562824578 0.02034702155584193 0.03664262570308825 0.02391731333734927 
0.06076414181820468 -0.03386046895602508 -0.04910218969300378 0.07977069300514114 -0.01757450505762055 -0.006428387067449612 
0.04278801094128599 -0.03440822129812981 -0.009713447210878889 0.0117088476059569 0.002324946778713174 -0.03888463061241016 
-0.08129916886596146 -0.05516961075249877 0.03682145653193493 -0.02995242589669857 -0.05735895131934218 -0.05292366376410156 
-0.03791734543881545 -0.003266323370164365 -0.008461531701237771 -0.02472888816041991 0.02310210943964079 0.02980222172370455 
-0.0118123165016127 -0.03169777364090977 -0.006655845354310463 -0.01669468054094221 0.06383122421395919 -0.01935763473626659 
-0.07735905355755743 0.0448662398911749 0.01756533779976646 -0.04570539028240273 0.07715746027758777 -0.04375142252448196 
-0.119562378783697 -0.002409116746762197 0.04118884875081437 -0.04151578959458602 0.08886942717762315 -0.02746079396549787 
0.0214788519949438 -0.01912520953845642 0.01431950085844848 -0.01055509180697138 0.02009675018567779 -0.01073938899580565 
0.01885406493387105 -0.0008159815728942247 0.003557463738496771 -0.01229586034892674 0.002799779925655975 -0.003261051717843435 
0.004592250840982392 -0.02208466896034651 0.009602411098263515 0.001410988492385871 -0.01435694015211414 -0.001489408328445429 
-0.01012437779876272 -0.03223073026039937 0.02419418865160847 -0.01982737827790586 -0.01215124690149114 -0.003848170349257693 
0.05791031106213333 -0.08899004516897752 0.01477539865360161 0.05623275680368167 -0.05363546916888542 -0.02835389748566773 
0.1237889231072835 -0.0762147388334988 -0.03101436024498195 0.04717898978143498 -0.04561697677728027 -0.01181020209985861 
0.04081277710089461 -0.02645096903581309 -0.03249322128234444 0.04028984331767581 -0.03925407192810833 0.03335985905705721 
-0.04810934386408817 -0.01844418852865621 -0.04456752174165341 0.04491866273671936 0.006073579815548478 0.02727009139726364 
-0.003301860827414452 0.005079996477437064 -0.1019775091600931 0.02680338015865717 0.01167943367537887 0.04743776221198109 
-0.04108796803658655 -0.03847044444242188 -0.03651499237140564 -0.01213991568505971 0.04795992416686913 0.03417088698854924 
-0.08567420359644069 -0.01376807563515126 -0.03015792648058941 -0.02196782466608576 0.002203819467951339 0.07324131167517722 
-0.01733737761428517 -0.04421839268817493 0.03286011758553085 -0.04869434371923656 -0.01663778548499566 -0.01733276789274951 
-0.01621777500712379 -0.04125233794343112 0.0196764952533248 -0.02737877151080956 0.003604955692068787 0.01293306899530512 
0.04317284736566249 -0.06348649502857877 0.01625516059460548 -0.03932419047139737 -0.01929150091090011 -0.02921167931399916 
-0.02818186927343647 -0.02079359657991177 -0.005629588736922478 -0.004058806151061031 0.02179674230712797 0.003851497055975564 
0.0009023819010202762 -0.02146264115881466 0.007132250542732103 -0.01253242760330873 -0.001561787735596545 -0.009756571319844287 
0.05296429833619985 -0.01851370375567085 -0.03301453418087161 0.008712858200443412 -0.02480565527077226 -0.007181200089893608 
-0.07482069828483658 0.006404965140062161 -0.06099980649932876 0.06661017638186456 0.004221468145492977 0.01857411772354569 
-0.009277017821089426 0.006981642743664787 -0.04028035048750583 0.01749326961094651 -0.03073574496639296 -0.01041518690987955 
-0.1456101671587132 -0.02750067068116922 0.04525999845663935 0.03513276950027537 -0.07591859196243265 -0.1184467427947089 
-0.07574485135178952 0.005099006460536035 0.04646227564178881 -0.04113635128133396 -0.04099592608926543 -0.114194736605746 
0.003599599389481713 -0.03240473008792394 -0.0185645882548213 0.004975104721155079 0.06236698788611249 -0.01324200825295291 
0.04869231690998389 -0.0734320522231502 -0.04380357681087995 -0.01355432675487447 0.09008872055806244 -0.03430334809816969 
0.07070227745231297 -0.02860057912868041 0.006489542367397831 -0.03844030999003001 -0.02105189781048561 -0.04563255791325523 
0.03325476402564932 -0.01737416083220242 -0.006557001628418417 -0.01649266106089898 -0.0007276830655515375 -0.03213123909884064 
-0.01800549923630971 -0.004796457766802661 -3.523526389176221e-05 -0.009318848532890266 0.002984100554378024 0.01113563160801833 
-0.01616312946575478 -0.03214355887345634 0.02366048329794795 -0.0111159436499306 -0.004184483610368866 0.002167997231413358 
-0.0356328196253891 -0.01647553268073777 0.01658843949063585 -0.02554914528027249 -0.01336485602007365 -0.001846244519464126 
-0.02877854040556825 -0.05642845416086972 0.08940241245226592 -0.09849983440452471 -0.01771583652100462 -0.07354403854122905 
-0.013228399718034 -0.01469006623775775 -0.03519395828505647 0.002316608588830503 0.00804129554433837 -0.03456120394220059 
0.01217949142599101 0.04372732957319057 -0.03283369411902621 -0.005427562800738707 -0.0109466362239309 -0.01715676892342994 
-0.08691773801017361 0.06412178480768647 0.007752199951603264 -0.04846170746659618 0.02891914841272147 0.01055083707665915 
-0.05098946120224512 0.03417881992389301 -0.04356315493605822 0.04724692594280335 -0.03556510452264647 0.02559794835686309 
-0.03488152805226088 -0.02031431863485716 -0.02541188193333618 -0.001414203396833678 0.0234455253702649 0.03856638308097503 
-0.01548264990732102 0.04042453166525155 -0.02765459081564692 -0.03911449667490978 -0.007592736151905387 0.05676019061185342 
-0.04523391382416306 -0.01134732211767711 -0.02026771517935454 -0.02385988063931063 -0.02911583837095892 0.05187127767066965 
-0.01002077949124692 -0.003705815913258171 -0.007220132354671465 -0.0009825073062146345 -0.03050814760988175 0.04142573409042844 
-0.01514305344906949 -0.0268345658080469 0.0173270049952351 0.0007861549048571873 -0.03186766286665046 0.02202868081764058 
0.004469765462499986 -0.02848925080786234 0.002695623899950502 -0.01484835359348871 -0.01609989508341142 0.009045694090790771 
-0.03175923224422222 -0.02831579004355775 -0.01179863286257482 -0.002431323861013458 0.004864336889678293 0.01810047570902198 
-0.05061781683442737 0.01129777454989788 -0.009865024409553435 0.01249273442377211 -0.0416142206907631 0.03967467148141331 
-0.09969517583103159 -0.02267974531284636 -0.04657876965394459 0.09517116289399759 0.01007037793316519 0.007388009661139134 
-0.02171409140204207 -0.0176638542143223 -0.0267309708761991 0.0479533266719668 -0.009541747402030976 0.0151094266668548 
0.02197065965011704 -0.01227370333022796 0.008882920657704962 -0.004989692427403051 -0.0338754420162054 -0.07153844395982557 
0.04725540968506098 -0.0217102407077755 -0.003386808106759543 -0.002760357530553838 -0.03704397553250752 -0.05408008751603068 
-0.03942522364110621 -0.007041474866917482 -0.007753994370503036 0.01797379874471667 0.002756630251565241 -0.02027028208165557 
0.05486318386299807 -0.02086961830893656 -0.0583791737403982 -0.02314530591840942 0.05805313386543658 -0.02506657083754455 
0.01525090274789202 -0.01738456898023998 -0.05060527986053176 -0.01265546160353361 0.06269223221231056 -0.03335004801722685 
-0.003629114157715064 0.01353705861690359 -0.03038041296377413 0.01781092824967687 0.005529275337035159 0.01937237682627222 
-0.011110412203133 0.02182399567524738 -0.01291163947024593 0.008457901616130036 -0.01594056693744135 0.01119389023952749 
-0.04637104484333757 0.02448490509986107 -0.002473515949226863 -0.007426894009332032 -0.007438392560348369 -0.01455710871452748 
-0.07816294136736825 0.03000214853949034 0.007851985886850597 -0.003595129286369418 -0.02449376193563342 -0.01235868575967279 
-0.07047391173388293 0.04916841974868838 0.02755287570659821 -0.05708355407981608 -0.0220731603849516 -0.05370337857174931 
-0.05313303296812276 0.05320473402497798 0.03271226443184545 -0.04846134950788854 -0.04937624333713955 -0.07591707712577633 
-0.02650935510578896 -0.04146785280711136 0.002763939216641465 0.01573878766804247 -0.04154118059128008 0.001514109336638755 
0.004068669307403925 -0.02088756412848676 -0.0295920615172015 0.03253903422644845 -0.06864478858757125 -0.03796936546809639 
-0.06062062611991409 0.02579723809081676 -0.00784554579024439 0.01931370277848956 0.01456132907909367 0.0075324038062497 
-0.03980292945796288 -0.0002229563132861897 -0.02106136395226806 -0.03352170115281577 0.04289902827315249 0.03641634157726083 
-0.009979314252865792 -0.0008050728140958846 -0.05314920648442029 -0.06648846240917258 0.001624503283483058 0.04302307860479504 
-0.0148163925703483 0.02700126857396418 -0.04915618160607526 -0.0412194465990595 -0.01006945022082248 0.01012270543661406 
-0.02563587139715838 0.00749403439441864 -0.01679513154794276 -0.02426334103868835 -0.004397013877163547 0.02788130553447539 
-0.02116398502987503 0.02737882943232992 0.0004682416265475839 0.000229761244192308 -0.009530426098922407 -0.01165570286776444 
-0.03344472911622833 0.0139889600718295 0.0005130748872782442 -0.002702709335205613 0.009154403259402533 0.01772387066395829 
-0.01619451573264867 -3.187633065159265e-05 0.00114972091692411 0.005318658401142487 0.008010323688895107 -0.01059829222619514 
-0.0374883654583627 -0.01620859262288401 -0.004295119691025141 0.03679543085876712 0.00971496793694283 -0.0301576683330098 
0.01946089282379885 -0.01322909750373058 -0.04140461677447231 0.02792169461987898 -0.001244226585769926 0.002811231598509682 
0.002143402474212004 -0.03156358897641517 -0.01831287961511215 0.01085398257805072 0.001683494269288742 0.03878696946076489 
0.02252854516267125 0.01111788037267428 0.00983015314514408 -0.053874628707655 -0.02241912748594017 0.004340837790413351 
-0.008862134592646339 0.005247511744450351 0.04114750867776638 -0.03329463266644868 -0.01158234696323331 -0.04586877855288808 
-0.01411603975892192 -0.0149898612531011 0.001221896992043818 -0.003680902021004335 -0.006198139163327517 0.0039199906019824 
-0.0160000292768996 -0.02024965548384478 -0.04102364542059272 -0.05126276580776731 0.1063918903357301 -0.02393874709960294 
0.03022727722627659 -0.06598767047572142 0.00232037239998701 -0.0239512737288789 0.04181236378820255 0.006482819655774944 
0.06827647675472676 -0.0215209908756991 -0.01073632308354797 -0.006035165721450123 -0.006071114654929661 -0.007798065605230756 
0.04905715680804025 -0.01556782300208635 -0.0134209588368102 0.008508829386457008 -0.01210853666252547 0.005062976335756923 
0.02861996566868353 0.005920693424170061 -0.01524680626790439 0.004110129777764728 -0.005542455089518716 -0.01451346155914397 
0.01521269467495855 -0.0005409046945307365 -0.02222875334390407 0.01586663128509486 -0.01129979992280684 0.01169070626441501 
-0.02140619966438553 -0.01506371136052385 -0.02970579654803052 0.05998821233739068 -0.005418363855090395 -0.02270232236330056 
0.01612761703122597 0.02932886703301212 -0.05409142007846671 0.01446783977520277 -0.04017412769909503 -0.07972168672139991 
0.04460291750080164 -0.04343804131112201 -0.03564544137925824 0.07773744863331854 -0.04131378360792746 -0.03731631562982309 
-0.001684568204269086 -0.03330995533382265 0.0002056426168719327 0.02072116620236192 -0.04905590014537729 -0.04678837138213826 
-0.01217985630191385 -0.03894892523570308 -0.01330634229174469 0.03767752026109291 0.02408875242207028 -0.02484559293835415 
0.04778785735388048 -0.02415477686227357 -0.04226615259018826 0.01288259253223054 0.01887882331531635 0.0003325542948314008 
-0.01111868383715107 0.02145369034056315 -0.06699492658412251 -0.02171200470365191 -0.001138069939644635 0.01053612082656765 
-0.06333499460022564 0.05729036361976209 -0.05109874715238315 -0.05575738084318231 -0.01924814508310313 0.05208421702450631 
0.01296325432025312 -0.01590641464907134 -0.03838575651593108 0.01264322207077005 -0.004856228872036597 0.02109082051927727 
-0.01206859048611498 -0.001930240628692965 -0.02541085808399816 0.0260281772205566 -0.002701219136690398 0.01777112462273188 
-0.007832583205490514 0.001980635013236695 -0.02807870789602437 0.01884259788606156 0.006781254731943128 0.01927429487155897 
-0.01927273893039153 0.007282937766778579 -0.03607140542051072 0.029796576571203 0.003097197900377212 0.01525739312806763 
-0.02350015164082868 -0.0005615724954212605 -0.04617565352178429 0.0599196460014499 -0.002170600050973118 0.01565253437088194 
0.02897307042602264 0.01069562828063377 -0.02319033424012933 0.0502315587467067 0.01055302286003484 -0.03695207971035742 
-0.01103525025532678 -0.01190633965544523 -0.008244139996641272 0.06591983320768453 -0.02109584521564755 0.01498350483590944 
0.03675051694062208 0.03677704128790547 -0.03055926060897231 0.03277650571616687 -0.03671970633866388 -0.03999124986052424 
0.06058178129441812 0.01988237125266125 0.01623980754033894 -0.02890802223043847 -0.02849124589710389 -0.04981624590526807 
0.030065146699836 -0.03025589717997154 0.003004124708505772 -0.01353236325127861 0.01739801323754166 -0.01682237862764907 
-0.02939861420884621 -0.01890737594612767 -0.03293431648124408 -0.04238794035074352 0.08143096250245808 -0.004458563573839383 
0.03953394817119648 -0.02956345797515675 -0.02538204404779072 -0.03292330423218484 0.02686357784225786 0.01511274034223533 
0.01158506505252483 -0.0048656535060178 -0.005362410442339058 -0.02081617100170179 0.004813501815660867 0.022957316328073 
0.03461050984259995 0.002735503643173367 -0.004493597971436968 -0.01229117880029738 -0.01380933136307391 -0.0008819572937865775 
0.01366887261044141 -0.003563639995837422 -0.004735419396768152 -0.01202946380907523 -0.00373562852613799 0.006813216165898492 
0.05018310332218775 -0.008127008285454332 0.005351385731096547 -0.01007866928218006 -0.008450324017077463 -0.01352888005268331 
0.08454494268043945 -0.0127953741709112 0.01767513497694051 -0.01819731326833588 -0.01040957112068694 -0.04631245078041495 
0.0243640690500747 -0.06197534021852903 -0.04999747163929769 0.1105715193343145 -0.03331058704268915 -0.06103850826184876 
0.04406593078521102 -0.02423960217832691 -0.031926037202514 0.04449678451477704 -0.02783464866194901 -0.01739295432711723 
0.0491564223322612 -0.03878220163628 -0.002496744307882623 -0.009099648841893786 -0.0567308480677569 0.03076807072367958 
0.03694067767067328 -0.06230572486862377 0.01018970664704388 -0.0003310100197537901 -0.02204661866964129 0.01198694638118616 
0.01279805413786493 -0.0409076531957243 0.01636844113197838 -0.02516598471600368 0.01017732621119945 0.01113220600587574 
-0.07884475566381786 -0.001303219303288358 -0.03079280734879569 -0.04131392244181136 -0.01885554048870902 0.08038272590312594 
-0.06203603827816982 0.04857810761865512 -0.02740378402138224 -0.06385198264654252 0.02953990762049113 0.03262465390571798 
0.01819930197680407 -0.008787135491455461 -0.008460909450956389 -0.006427343490845035 0.01414327510549391 -0.008498247045416551 
0.01820470366985611 -0.01025424326966182 -0.02122492655150622 -0.003323663635274011 0.03559365845302274 -0.01163801945106479 
0.01634059762287508 -0.01145419762082599 -0.00808312084412785 0.004072484212417737 0.01722264676888401 -0.01124657403064286 
-0.02983818392180151 -0.00901731644642002 -0.01166068809160306 -0.002357017029700616 0.03472244883393367 0.001218587642648099 
0.03706116277573733 -0.007637402093075527 -0.0008434262015885255 -0.0242180223805954 0.0101232905879576 -0.0045763323116497 
0.1295832387566768 -0.02476393907192223 -0.01613852229113749 -0.02320891291532896 -0.02119820185708039 -0.003225275886291208 
0.02771154612807228 0.01579850257642779 -0.02012624140768726 -0.01411745835390497 -0.0006727144762179443 -0.007370947980418808 
-0.04065269900231978 0.02412544431815622 -0.005905940040381251 0.03960446731761451 0.007012749503084035 -0.04104016099797344 
0.02420683073941576 -0.002667808807671447 -0.02192525294696137 -0.0007948882626315162 0.0282844059715927 0.001018371622382731 
0.0209804709968455 -0.006220032480469363 -0.01978390857775295 -0.01392936192391551 0.004708708757852224 0.02097111385482072 
-0.005474206263448261 0.005935047255259576 -0.07396417418038481 0.001726682251537946 0.06634065622613905 -0.01837254999811647 
0.02240510492430304 -0.01610425106945866 -0.01026540549874868 -0.00615303590206118 -0.0005277859839741533 0.011575653868386 
-0.01920788986802423 -0.01155212371097114 -0.0150252011788017 0.0342492315379708 -0.0005206662448586571 0.01365310166938984 
0.00482402937807321 -0.005171217090187173 0.004213850584827678 0.01318322254995301 -0.0136412109945198 0.008247752068095752 
-0.00496149206362353 0.001193363666748091 -0.01586052083257776 0.01273809578749982 -0.00162699460893261 0.01554184239499679 
0.04213710235558391 0.007579339506209167 -0.008297430692990354 -0.0217532037125449 0.00111178321572681 -0.01107131001013929 
0.02507169767468869 -0.03552682523409776 0.02216760545427477 -0.05527296275784157 0.02945100493370851 0.01545566121723596 
0.004491460592264878 -0.005252179412168715 -0.03325979352390712 -0.003298569309645577 0.02764963715738026 -0.01295854891238195 
-0.005938842833371033 -0.03135434173121138 0.01000329180520629 -0.01632718210802027 0.006859522565577379 0.02055145048206441 
-0.003117246531391451 -0.008831839773674939 -0.01748232951515646 -0.01404642768800432 0.05628477201402799 0.01414699492430882 
-0.03219077669406217 0.003268577425805565 -0.05737651931560936 -0.007091877975669503 0.09248201877349706 -0.006499950141466256 
-0.0222873126410118 -0.01846844335388879 0.008987355137356035 -0.008394133533672063 -0.01879122305267939 0.04482486323641367 
-0.01389502199124866 -0.02483268004161381 -0.01429419769728596 -0.0220376257651498 -0.03081387231051123 0.09963727461957853 
0.09006391497603004 0.01774879821952245 0.02722977974227833 -0.03898030565862265 -0.02579193409175283 -0.03255216414926248 
0.02275363390197934 -0.01331287113117507 -0.008731952764270474 -0.008037594939339737 0.002148776379531583 0.01406156783988874 
-0.01374394207777624 0.009989558183900082 -0.003186984941392598 -0.002632124191898365 0.007337797712400002 0.0176728334772767 
0.01199317656951448 -0.01305915899880831 -0.006607164695794558 -0.003250133798060511 -0.006746150145432824 0.02075108164360892 
0.006513581058225305 -0.001857904722354406 -0.0008529364305281346 -0.008675057141258102 -0.02169235761178267 0.01612314016760859 
0.04003338344854981 0.01497237906069493 -0.02098326146340215 -0.01453872501839873 -0.04175101053706951 0.02446386592063391 
0.06245408604344475 -0.03052479659243673 0.004060957385566622 -0.02699635437331614 0.01649650406095553 -0.007533312317416987 
0.01901415488883733 -0.02912191525042329 -0.01069172717721212 0.002431789323296841 0.02193469948211076 0.004895007430617295 
-0.01737919475769565 0.0251818882275984 -0.03960680478080732 0.007162416686565481 0.03732650818263496 0.01910247405153694 
0.009953195624479098 0.03786006108625616 -0.02099210898190997 0.002525794957818253 0.002090906026315955 0.02617456191584197 
0.03310146402082172 0.0129026028809484 -0.008564866592514162 -0.01589473523941591 0.01423300381630701 -0.004528428751089809 
0.005401854657969544 0.02555271319557308 -0.006548379139096341 0.008677702543487405 -0.04472023104070678 -0.03203521287140169 
-0.003388878848396456 0.004176725567625391 -0.02884779662192955 -0.002898114540234155 0.04627420999080908 -0.0192556423309514 
-0.02263919405843712 0.004835131457186748 0.008573274301498649 -0.02130265408637261 0.01476858983869945 -0.0206716557025768 
-0.01867470844267015 0.01087562220205285 -0.007824584689740973 -0.003488773543543573 0.0007009911513942263 -0.004935317305192723 
-0.04818974858871915 0.002456301793812203 0.01489104889827011 -0.004457097320408551 0.005284199490354955 -0.005504165121040893 
-0.01736785826863518 0.008120275916919323 -0.009475834335146146 0.001273738681861257 0.007113557978058817 -0.002824571338031069 
0.01033615051747973 0.0178046933592876 -0.02427056870579471 -0.0005888389780711189 -0.01143359380535048 0.0139290214501352 
0.0266880790941167 -0.01239494586996267 -0.02837739135431887 0.06303904504609625 -0.0004024386273879121 -0.02987574135648608 
-0.04767705584735342 0.006540010627626133 -0.001466907414928074 0.03688493375701313 0.02912840794837442 -0.01839231126804297 
-0.07217171960132167 0.04252253641417255 -0.0004733738348884607 -0.02578770487914594 -0.01667315228129769 0.01979482348112962 
-0.06118395957286158 0.02696472830123987 -0.03267458185086523 0.03906433205243185 0.0600146354671049 -0.01119421265357876 
1.569524457267185e-05 0.02258501660686702 -0.02179482135962659 -0.005446826323338898 0.01079736195170461 -0.02052619544086967 
0.006643487379666713 0.01877730175828696 -0.007848870052480016 -2.149646319018192e-05 0.0103698022339714 -0.01676734702495674 
-0.01128994849663982 0.0444288915903196 -0.01241188273489779 -0.02677932807003598 0.005345057537561602 -0.05848598583874669 
0.01565513287301203 -0.03705249937505943 -0.008477869272212037 0.0007110624226595269 0.01331952324716894 0.02454485440443011 
-0.006419353777636892 -0.01879552283957254 -0.003056471960482441 0.001205157339561048 -0.00608642160549988 0.02493940945449327 
0.004899345638150666 -0.01781265874253911 -0.0008641516146935671 0.001681856102409903 -0.008766885097128975 0.003220231944139843 
0.004365986862695866 -0.03366889401758326 0.003960411894695709 -0.00676959814645355 0.01539869589540166 -0.0002326664281440462 
0.0305441851209545 -0.05220733138829711 0.003665532456556427 -0.02437868922168676 0.01930896594523944 0.02637270150513538 
